tree
version=v4
num_class=1
num_tree_per_iteration=1
label_index=0
max_feature_idx=132
objective=binary sigmoid:1
feature_names=Column_0 Column_1 Column_2 Column_3 Column_4 Column_5 Column_6 Column_7 Column_8 Column_9 Column_10 Column_11 Column_12 Column_13 Column_14 Column_15 Column_16 Column_17 Column_18 Column_19 Column_20 Column_21 Column_22 Column_23 Column_24 Column_25 Column_26 Column_27 Column_28 Column_29 Column_30 Column_31 Column_32 Column_33 Column_34 Column_35 Column_36 Column_37 Column_38 Column_39 Column_40 Column_41 Column_42 Column_43 Column_44 Column_45 Column_46 Column_47 Column_48 Column_49 Column_50 Column_51 Column_52 Column_53 Column_54 Column_55 Column_56 Column_57 Column_58 Column_59 Column_60 Column_61 Column_62 Column_63 Column_64 Column_65 Column_66 Column_67 Column_68 Column_69 Column_70 Column_71 Column_72 Column_73 Column_74 Column_75 Column_76 Column_77 Column_78 Column_79 Column_80 Column_81 Column_82 Column_83 Column_84 Column_85 Column_86 Column_87 Column_88 Column_89 Column_90 Column_91 Column_92 Column_93 Column_94 Column_95 Column_96 Column_97 Column_98 Column_99 Column_100 Column_101 Column_102 Column_103 Column_104 Column_105 Column_106 Column_107 Column_108 Column_109 Column_110 Column_111 Column_112 Column_113 Column_114 Column_115 Column_116 Column_117 Column_118 Column_119 Column_120 Column_121 Column_122 Column_123 Column_124 Column_125 Column_126 Column_127 Column_128 Column_129 Column_130 Column_131 Column_132
feature_infos=[0:1] [0:1] [0:1] [0:1] [0:1] [0:1] [0:1] [0:1] [0:1] [0:1] [0:1] [0:1] [0:1] [0:1] [0:1] [0:1] [0:1] [0:1] [0:1] [0:1] [0:1] [0:1] [0:1] [0:1] [0:1] [0:1] [0:1] [0:1] [0:1] [0:1] [0:1] [0:1] [0:1] [0:1] [0:1] [0:1] [0:1] [0:1] [0:1] [0:1] [0:1] [0:1] [0:1] [0:1] [0:1] [0:1] [0:1] [0:1] [0:1] [0:1] [0:1] [0:1] [0:1] [0:1] [0:1] [0:1] [0:1] [0:1] [0:4] [-0.48936805277023437:3.0486729543726057] [-0.51576091525836043:3.1370640547492319] [0:3] [0:1] [-4.1099042176186078:11.575253860658876] [0:3] [0:1] [0:1] [0:1] [0:1] [0:1] [0:1] [0:1] [0:1] [0:3] [0:1] [0:1] [0:1] [0:1] [0:1] [0:1] [0:3] [0:3] [0:1] [0:12] [-7.4443849258306782:6.6494868634261799] [-2.8751403405952236:9.9593664186790072] [-2.603431990895908:11.325600247470096] [0:1] [0:1] [0:1] [0:1] [0:3] [0:1] [0:2] [0:4] [0:4] [-1.687949913063832:18.954553578499731] [-2.6444911079554592:10.209365949942612] [-0.46765631698146481:9.6060735195244202] [-0.4917893249691293:10.146893191737243] [-3.0500066679438564:19.152464556319622] [-2.9589696072887337:10.424112124437389] [-0.4640105335040734:9.3477773140434923] [-0.4883921292028951:11.467090764180764] [-2.9223799755493829:15.395718133574452] [-0.48830007937835618:3.8092199705701377] [-0.51471637953527183:3.9213486707409206] [-4.0882978333932032:12.965393935203268] [-0.26494375929021058:6.0343671558586234] [-0.46603980085169261:9.6933782299250684] [-0.49696541937303401:12.172350587983663] [-1.6609338638180542:21.48208884669879] [-1.687949913063832:18.954553578499731] [-2.6444911079554592:10.209365949942612] [-0.46765631698146481:9.6060735195244202] [-0.4917893249691293:10.146893191737243] [-3.0500066679438564:19.152464556319622] [-1.6802800691595019:19.175201400124038] [-2.9589696072887337:10.424112124437389] [-0.4640105335040734:9.3477773140434923] [-0.4883921292028951:11.467090764180764] [-2.9223799755493829:15.395718133574452] [-5.7291794910873994:7.9808566914862507] [-0.48830007937835618:3.8092199705701377] [-0.51471637953527183:3.9213486707409206] [-4.0882978333932032:12.965393935203268] [-0.36958371814316587:3.362906248781925] [-0.26494375929021058:6.0343671558586234] [-0.46603980085169261:9.6933782299250684] [-0.37753218130479282:3.6014757033018676] [-0.49696541937303401:12.172350587983663] [-2.193793189853575:22.773686036674956] none
tree_sizes=1010 1127 1129 1130 1113 1143 1147 1243 1248 1251 1261 1256 1462 1366 1473 1145 1151 1485 1680 1151 1148 1264 1258 1264 1256 1263 1363 1142 1570 1137 1136 1130 1132 1369 1136 1135 1015 1140 1133 1142 1135 1129 1798 1920 1938 1703 1920 1799 1922 1586 1808 1790 1821 1931 1934 1918 1913 1491 1578 1819 1803 1599 1940 1926 1684 1710 1793 1478 1482 1485 1917 1800 1922 1813 1586 1158 1902 1473 1582 1943 824 1587 1945 1798 1937 1583 1696 1470 1576 1687 1802 1492 1936 1586 1588 1478 1916 1037 1591 1784

Tree=0
num_leaves=9
num_cat=0
split_feature=0 65 66 82 57 66 66 58
split_gain=559102 12735.2 708.855 381.119 315.351 167.675 109.729 63.4113
threshold=inf 1.0000000180025095e-35 1.0000000180025095e-35 1.0000000180025095e-35 1.0000000180025095e-35 1.0000000180025095e-35 1.0000000180025095e-35 1.5000000000000002
decision_type=8 10 10 10 10 10 10 10
left_child=1 2 3 -1 6 -6 -3 -4
right_child=-2 4 7 -5 5 -7 -8 -9
leaf_value=-0.41700452896616824 0.42801214385631897 -0.13122435356053333 -0.25334980660018885 -0.3858455426509988 -0.018848241197342488 0.13010294695384386 0.0045952224033653883 -0.32017785810790289
leaf_weight=46387.75 74013.5 1657.75 1077 29355.25 2452.5 403 326 1641.25
leaf_count=185551 296054 6631 4308 117421 9810 1612 1304 6565
internal_value=0 -0.380294 -0.401075 -0.404928 -0.0433606 0.00217341 -0.108904 -0.2937
internal_weight=157314 83300.5 78461.2 75743 4839.25 2855.5 1983.75 2718.25
internal_count=629256 333202 313845 302972 19357 11422 7935 10873
is_linear=0
shrinkage=0.214006


Tree=1
num_leaves=9
num_cat=0
split_feature=0 65 66 83 64 57 57 57
split_gain=362964 8635.86 519.989 340.944 200.053 124.879 92.0451 53.2416
threshold=inf 1.0000000180025095e-35 1.0000000180025095e-35 9.5000000000000018 1.5000000000000002 1.0000000180025095e-35 1.0000000180025095e-35 1.0000000180025095e-35
decision_type=8 10 10 10 10 10 10 10
left_child=1 2 3 -1 5 -3 -6 -4
right_child=-2 4 7 -5 6 -7 -8 -9
leaf_value=-0.34067859476302154 0.35349596478692813 -0.11934693314671786 -0.26394600631600024 -0.30570953353553409 -0.031000403594560702 -0.031879397153259756 0.069485880278348802 -0.2031203186996792
leaf_weight=56193.08582881093 70724.659804791212 1229.2021300196648 1454.9857004880905 16524.299013838172 747.43007084727287 1907.8534880280495 945.7281357049942 1204.8110728114843
leaf_count=234212 296054 4935 5947 68760 3000 7636 3786 4926
internal_value=7.76953e-05 -0.311557 -0.329333 -0.332732 -0.0341555 -0.0661521 0.0251271 -0.236394
internal_weight=150932 80207.4 75377.2 72717.4 4830.21 3137.06 1693.16 2659.8
internal_count=629256 333202 313845 302972 19357 12571 6786 10873
is_linear=0
shrinkage=0.214006


Tree=2
num_leaves=9
num_cat=0
split_feature=0 65 77 83 58 66 80 57
split_gain=252391 6621.61 501.349 227.504 191.069 132.717 97.2696 79.8718
threshold=inf 1.0000000180025095e-35 1.0000000180025095e-35 8.5000000000000018 1.5000000000000002 1.0000000180025095e-35 1.0000000180025095e-35 1.0000000180025095e-35
decision_type=8 10 10 10 10 10 10 10
left_child=1 2 3 -1 6 -4 -3 -6
right_child=-2 4 5 -5 7 -7 -8 -9
leaf_value=-0.30325382430598763 0.31195989446173139 -0.033972710624326968 -0.25042396701680963 -0.27488237665983545 -0.11295813833277804 -0.16976596360609436 0.059346352228163396 -0.036615061637421044
leaf_weight=39809.833346694708 63770.661103248596 865.60417722165585 8799.2272706776857 19181.046803250909 993.29605151712894 1045.2837151437998 1250.660212546587 1704.923386067152
leaf_count=182476 296054 3484 40017 86881 4020 4471 5026 6827
internal_value=0.000277034 -0.269597 -0.286568 -0.294029 -0.0269627 -0.24186 0.0211766 -0.0647193
internal_weight=137421 73649.9 68835.4 58990.9 4814.48 9844.51 2116.26 2698.22
internal_count=629256 333202 313845 269357 19357 44488 8510 10847
is_linear=0
shrinkage=0.214006


Tree=3
num_leaves=9
num_cat=0
split_feature=0 65 82 66 66 80 64 57
split_gain=182181 5403.72 543.697 350.742 150.16 113.648 83.4758 21.0959
threshold=inf 1.0000000180025095e-35 1.0000000180025095e-35 1.0000000180025095e-35 1.0000000180025095e-35 1.0000000180025095e-35 1.5000000000000002 1.0000000180025095e-35
decision_type=8 10 10 10 10 10 10 10
left_child=1 2 6 -4 5 -3 -1 -6
right_child=-2 4 3 -5 7 -7 -8 -9
leaf_value=-0.27719144551517588 0.28570935727314767 -0.07561093235209064 -0.2395798054987068 -0.13835857788201533 0.027873230814709014 -0.0039423480946057981 -0.24277472939329137 0.1012939112174273
leaf_weight=32802.329684376717 55652.812120676041 1894.3562869280577 23124.119334578514 1681.8532080948353 324.39376452565193 2178.8980024755001 3579.7849700450897 400.52603890001774
leaf_count=170346 296054 7667 117421 7755 1304 8774 18323 1612
internal_value=0.000525658 -0.239998 -0.257148 -0.232717 -0.0213021 -0.0372734 -0.273805 0.068439
internal_weight=121639 65986.3 61188.1 24806 4798.17 4073.25 36382.1 724.92
internal_count=629256 333202 313845 125176 19357 16441 188669 2916
is_linear=0
shrinkage=0.214006


Tree=4
num_leaves=9
num_cat=0
split_feature=0 65 58 83 83 73 83 58
split_gain=134511 4553.42 566.305 290.102 237.953 140.417 90.673 36.7692
threshold=inf 1.0000000180025095e-35 1.5000000000000002 9.5000000000000018 6.5000000000000009 2.5000000000000004 4.5000000000000009 1.0000000180025095e-35
decision_type=8 10 10 10 10 10 10 10
left_child=1 2 4 -4 -1 6 -3 -7
right_child=-2 5 3 -5 -6 7 -8 -9
leaf_value=-0.23212915891767469 0.26788970675302498 -0.2190783655247642 -0.25411162398618647 -0.21351694945651448 -0.15862238274405502 0.10120165504499136 -0.035483284254803481 0.018969377063085074
leaf_weight=3149.6561378240585 47570.961372852325 128.39231799542904 34261.511072918773 10543.484139233828 5608.1757136434317 308.21361243724823 3045.9614979177713 1296.8806937336922
leaf_count=18465 296054 522 204158 59746 31476 1244 12343 5248
internal_value=0.00080429 -0.216971 -0.23483 -0.244559 -0.185058 -0.0168254 -0.0429091 0.0347598
internal_weight=105913 58342.3 53562.8 44805 8757.83 4779.45 3174.35 1605.09
internal_count=629256 333202 313845 263904 49941 19357 12865 6492
is_linear=0
shrinkage=0.214006


Tree=5
num_leaves=9
num_cat=0
split_feature=109 65 82 66 64 83 73 57
split_gain=100724 3896.49 658.242 376.047 104.782 101.197 84.7213 19.8275
threshold=8.8590298892332591 1.0000000180025095e-35 1.0000000180025095e-35 1.0000000180025095e-35 2.5000000000000004 7.5000000000000009 2.5000000000000004 1.0000000180025095e-35
decision_type=8 10 10 10 10 10 10 10
left_child=1 2 5 -4 6 -1 -3 -6
right_child=-2 4 3 -5 7 -7 -8 -9
leaf_value=-0.24796645137754292 0.25519642046242508 -0.047389426236228625 -0.19481496980420895 -0.08142968351017868 0.025906197751705266 -0.22086849097724218 0.01814016893002041 0.10047285130857012
leaf_weight=17136.071077764034 40098.330006018281 2769.6023389101028 17933.243741974235 1447.7645148336887 303.53628259897232 9992.0347784310579 1341.1323783248663 353.53570826351643
leaf_count=121187 296091 11280 117407 7750 1229 67466 5423 1423
internal_value=0.00111366 -0.197578 -0.216466 -0.186345 -0.0133263 -0.237986 -0.0260103 0.0660266
internal_weight=91375.3 51276.9 46509.1 19381 4767.81 27128.1 4110.73 657.072
internal_count=629256 333165 313810 125157 19355 188653 16703 2652
is_linear=0
shrinkage=0.214006


Tree=6
num_leaves=9
num_cat=0
split_feature=110 65 82 58 66 66 57 58
split_gain=76120.6 3347.16 695.549 373.302 125.583 85.2558 76.0882 12.1069
threshold=10.245558778531505 1.0000000180025095e-35 1.0000000180025095e-35 1.5000000000000002 1.0000000180025095e-35 1.0000000180025095e-35 1.0000000180025095e-35 1.5000000000000002
decision_type=8 10 10 10 10 10 10 10
left_child=1 2 4 -4 -1 6 -3 -7
right_child=-2 5 3 -5 -6 7 -8 -9
leaf_value=-0.22692729291574626 0.24593455102245887 -0.058851617568615455 -0.1131627346312649 -0.18599643421651293 -0.1145354336673467 0.080846591922769065 0.001236828066144143 0.024543229128946662
leaf_weight=22593.147037684917 33452.698854245245 1599.015815705061 4297.3828850835562 12890.107689499855 464.68296359479427 419.67354908585548 2434.6266341209412 299.90362480282784
leaf_count=185548 296062 6631 29590 95582 3117 1703 9810 1213
internal_value=0.00144458 -0.180314 -0.200372 -0.167786 -0.224662 -0.0104779 -0.0225834 0.0573806
internal_weight=78451.2 44998.5 40245.3 17187.5 23057.8 4753.22 4033.64 719.577
internal_count=629256 333194 313837 125172 188665 19357 16441 2916
is_linear=0
shrinkage=0.214006


Tree=7
num_leaves=10
num_cat=0
split_feature=109 65 64 83 66 83 58 105 83
split_gain=57863.7 2848.88 742.327 421.436 174.182 76.074 73.4016 22.6572 7.82646
threshold=7.1412538936912942 1.0000000180025095e-35 1.5000000000000002 9.5000000000000018 1.0000000180025095e-35 4.5000000000000009 1.5000000000000002 3.167373529453235 3.5000000000000004
decision_type=8 10 10 10 10 10 10 8 10
left_child=1 2 3 -1 -4 8 -7 -2 -3
right_child=7 5 4 -5 -6 6 -8 -9 -10
leaf_value=-0.21289660727388893 -0.020070408508521393 -0.20310365038256542 -0.1271296287683896 -0.15103629612927219 -0.005241063096317021 0.026628423191558115 -0.027878363342708386 0.23899399686626976 -0.10146748322193461
leaf_weight=22766.858717955649 15.469850860536097 85.357618018984795 4969.5217478349805 6479.2496271654963 601.98620194196701 2032.0492902398109 2553.2039810270071 27709.043422110379 58.467246323823929
leaf_count=214082 100 363 42325 53620 3706 8264 10468 296082 246
internal_value=0.00180061 -0.164384 -0.185553 -0.199192 -0.11396 -0.00852975 -0.00372256 0.238849 -0.161787
internal_weight=67271.2 39546.7 34817.6 29246.1 5571.51 4729.08 4585.25 27724.5 143.825
internal_count=629256 333074 313733 267702 46031 19341 18732 296182 609
is_linear=0
shrinkage=0.214006


Tree=8
num_leaves=10
num_cat=0
split_feature=109 65 82 58 83 80 64 86 105
split_gain=44129.9 2410.52 836.819 402.665 162.144 65.366 32.1292 25.8199 20.8206
threshold=7.1412538936912942 1.0000000180025095e-35 1.0000000180025095e-35 2.5000000000000004 6.5000000000000009 1.0000000180025095e-35 2.5000000000000004 1.4707980119233295 3.167373529453235
decision_type=8 10 10 10 10 10 10 10 8
left_child=1 2 4 -4 -1 7 -7 -3 -2
right_child=8 5 3 -5 -6 6 -8 -9 -10
leaf_value=-0.2227951541248839 -0.015960056707528356 -0.026565257047789698 -0.10166949709470846 -0.17736603718999502 -0.18057880745058658 0.0047393489969701167 0.065713367382497168 -0.10637320861076317 0.23367343233432478
leaf_weight=8968.5489627197385 15.311941087245939 1956.6869240701199 8156.2212906181812 5316.187717795372 7782.2133042067289 2065.1865070015192 489.62324015796185 205.12074269354343 22822.622583128512
leaf_count=105469 100 8091 73366 51736 83162 8413 1991 846 296082
internal_value=0.00216965 -0.14904 -0.171246 -0.131539 -0.203182 -0.00674992 0.0164249 -0.0341377 0.233506
internal_weight=57777.7 34939.8 30223.2 13472.4 16750.8 4716.62 2554.81 2161.81 22837.9
internal_count=629256 333074 313733 125102 188631 19341 10404 8937 296182
is_linear=0
shrinkage=0.214006


Tree=9
num_leaves=10
num_cat=0
split_feature=105 65 83 58 77 57 58 73 97
split_gain=33736 2013.2 866.215 619.452 110.086 55.2243 39.5625 28.0929 5.69821
threshold=3.6541476451431936 1.0000000180025095e-35 6.5000000000000009 2.5000000000000004 1.0000000180025095e-35 1.0000000180025095e-35 1.5000000000000002 2.5000000000000004 -1.1343438184086043
decision_type=8 10 10 10 10 10 10 10 10
left_child=1 2 4 -4 -1 7 -7 -3 -2
right_child=8 5 3 -5 -6 6 -8 -9 -10
leaf_value=-0.20937935215495854 0.22957860867611135 -0.051858420847711272 -0.085734569155132903 -0.17181444023135373 -0.12775842037769072 0.044829807498262604 -0.0069441833437155669 0.0034665539625450569 0.01371333905419069
leaf_weight=10102.154891327024 18714.062484592199 1263.0101269185543 8493.7913714796305 6971.1124613881111 818.08448655903339 1128.9290508776903 1684.6041179597378 630.02656669914722 5.6021571755409232
leaf_count=134929 296058 5350 87385 82409 9086 4587 6825 2585 42
internal_value=0.00253705 -0.134121 -0.157121 -0.124537 -0.203265 -0.00518471 0.0138301 -0.0334456 0.229514
internal_weight=49811.4 31091.7 26385.1 15464.9 10920.2 4706.57 2813.53 1893.04 18719.7
internal_count=629256 333156 313809 169794 144015 19347 11412 7935 296100
is_linear=0
shrinkage=0.214006


Tree=10
num_leaves=10
num_cat=0
split_feature=109 65 82 66 83 66 83 65 107
split_gain=25838.1 1644.23 918.892 427.047 187.506 47.7644 46.2458 16.7167 10.1075
threshold=7.1412538936912942 1.0000000180025095e-35 1.0000000180025095e-35 1.0000000180025095e-35 7.5000000000000009 1.0000000180025095e-35 4.5000000000000009 1.0000000180025095e-35 -0.48798821731527481
decision_type=8 10 10 10 10 10 10 8 10
left_child=1 2 4 -4 -1 6 -3 -2 -7
right_child=7 5 3 -5 -6 8 -8 -9 -10
leaf_value=-0.20524272627733126 0.0053170394408898446 -0.14536404893583008 -0.11164056216779344 0.03375139441751885 -0.15135022621863556 0.083658088201945799 -0.0093485380207074097 0.22639087736439434 0.029156145234972859
leaf_weight=7296.9146566204727 15.680985786020754 117.98537760972977 9890.9581905007362 1020.7032744809985 4970.9833995401859 230.67829930782318 3858.7184640616179 15301.230897761881 480.32724277675152
leaf_count=121176 112 531 117357 7745 67455 944 15897 296070 1969
internal_value=0.00288163 -0.119843 -0.14322 -0.0980402 -0.183405 -0.00424975 -0.013384 0.226165 0.0468387
internal_weight=43184.2 27867.3 23179.6 10911.7 12267.9 4687.71 3976.7 15316.9 711.006
internal_count=629256 333074 313733 125102 188631 19341 16428 296182 2913
is_linear=0
shrinkage=0.214006


Tree=11
num_leaves=10
num_cat=0
split_feature=105 83 58 57 65 66 58 74 75
split_gain=19821.7 1413.04 918.514 441.567 240.421 137.389 58.712 16.0058 14.2196
threshold=3.6214642402325823 5.5000000000000009 2.5000000000000004 1.0000000180025095e-35 1.0000000180025095e-35 1.0000000180025095e-35 1.5000000000000002 1.0000000180025095e-35 1.0000000180025095e-35
decision_type=8 10 10 10 10 10 10 8 8
left_child=1 5 3 -3 -4 6 -1 -7 -2
right_child=8 2 4 -5 -6 7 -8 -9 -10
leaf_value=-0.14533260483940066 -0.054624562143441115 -0.078738173643039353 -0.15209820704861579 0.0052669044330815118 -0.03617245394528832 -0.010215715991097895 -0.20287715106539844 0.21994001653468651 0.2239267753513664
leaf_weight=948.92719451338053 8.3988939411938173 5930.0843829698861 6067.0036197528243 5545.7731704264879 947.26880137622356 132.76947581022978 5628.6229617036879 15.448560051620005 12475.553019426763
leaf_count=14364 77 61972 94839 51670 3929 1179 105033 119 296074
internal_value=0.00319905 -0.105987 -0.0754327 -0.0381422 -0.136443 -0.189984 -0.194575 0.0137731 0.223739
internal_weight=37699.9 25215.9 18490.1 11475.9 7014.27 6725.77 6577.55 148.218 12484
internal_count=629256 333105 212410 113642 98768 120695 119397 1298 296151
is_linear=0
shrinkage=0.214006


Tree=12
num_leaves=12
num_cat=0
split_feature=110 82 83 65 58 64 64 72 64 100 105
split_gain=15210.1 1343.13 490.015 361.631 340.535 216.805 27.5945 19.8633 12.3149 5.2506 6.81446
threshold=5.9696646260486164 1.0000000180025095e-35 4.5000000000000009 1.0000000180025095e-35 1.5000000000000002 1.5000000000000002 1.5000000000000002 1.0000000180025095e-35 2.5000000000000004 4.4717770591931361 2.6437436592896075
decision_type=8 10 10 10 10 10 10 8 10 8 8
left_child=1 3 6 5 -4 -1 -3 -2 -5 -9 -11
right_child=7 2 4 8 -6 -7 -8 9 -10 10 -12
leaf_value=-0.17599673803226287 -0.089872012798098963 -0.17304422576526504 0.017740382787501834 -0.03584692979768872 -0.05924603098971834 -0.076483407345364504 -0.068138565277920421 0.04931349251046948 0.043620205799960968 0.5344195060841288 0.22182938026622617
leaf_weight=8080.2274263687432 9.3742109052836877 1321.3289632052183 4091.8100361675024 897.19788590073586 7372.6417498104274 1144.7207128703594 125.76576026529074 8.0770591534674185 99.184770077466965 3.1949911788105965 10154.448090650141
leaf_count=170293 96 22026 32029 3797 84413 18295 1703 72 408 34 296090
internal_value=0.00344992 -0.0924618 -0.0465806 -0.150419 -0.0317686 -0.163648 -0.163927 0.221503 -0.0279364 0.221791 0.221928
internal_weight=33308 23132.9 12911.5 10221.3 11464.5 9224.95 1447.09 10175.1 996.383 10165.7 10157.6
internal_count=629256 332964 140171 192793 116442 188588 23729 296292 4205 296196 296124
is_linear=0
shrinkage=0.214006


Tree=13
num_leaves=11
num_cat=0
split_feature=105 83 58 57 65 57 66 83 75 83
split_gain=11705.6 1187.63 554.235 284.932 238.903 196.922 152.148 21.9535 11.3285 3.49541
threshold=3.6214642402325823 6.5000000000000009 2.5000000000000004 1.0000000180025095e-35 1.0000000180025095e-35 1.0000000180025095e-35 1.0000000180025095e-35 3.5000000000000004 1.0000000180025095e-35 1.5000000000000002
decision_type=8 10 10 10 10 10 10 10 8 10
left_child=1 4 3 -3 6 -4 -1 -6 -2 -10
right_child=8 2 5 -5 7 -7 -8 -9 9 -11
leaf_value=-0.17432052187701402 -0.036493306412963132 -0.053847095311201652 -0.14404901097301781 0.018602134814847706 -0.10513081482336027 -0.06059959571395316 0.029415713237167695 0.028723267703645611 0.22031159022907124 0.46978709467615937
leaf_weight=5750.4135401844978 7.8698853105306616 4973.5154939182103 2692.9799785465002 4971.0542441979051 68.098925739526749 2494.9307603612542 172.92124665901065 318.92920009791851 8246.4890407435596 2.5729392990469924
leaf_count=142162 77 55301 48087 45854 363 38127 1834 1377 296057 17
internal_value=0.00363442 -0.0797365 -0.047213 -0.0176314 -0.157729 -0.103917 -0.168373 0.00517118 0.220145 0.220389
internal_weight=29699.8 21442.8 15132.5 9944.57 6310.36 5187.91 5923.33 387.028 8256.93 8249.06
internal_count=629256 333105 187369 101155 145736 86214 143996 1740 296151 296074
is_linear=0
shrinkage=0.214006


Tree=14
num_leaves=12
num_cat=0
split_feature=84 82 73 83 64 58 65 57 102 82 107
split_gain=9034.96 1054.47 361.674 311.127 282.885 182.137 105.592 52.4462 16.9243 7.71798 3.64916
threshold=-3.4511212522079009 1.0000000180025095e-35 2.5000000000000004 7.5000000000000009 1.5000000000000002 1.5000000000000002 1.0000000180025095e-35 1.0000000180025095e-35 0.51714203194693797 1.0000000180025095e-35 -1.3315996394203979
decision_type=10 10 10 10 10 10 10 10 8 10 8
left_child=8 3 4 6 -3 -5 -2 -4 10 -10 -1
right_child=1 2 7 5 -6 -7 -8 -9 9 -11 -12
leaf_value=-0.1717121867545697 -0.17715603706725128 -0.072832898429986942 0.0039599905369358309 0.0084692518820331155 0.012588265947362731 -0.10747903131302552 -0.016907695381338676 0.060954421146975524 0.21903362648116856 0.56147351127075618 0.073739243376997804
leaf_weight=5.3822158090770245 3875.1672197990119 6453.5841132737696 1298.4803042970598 764.21255575120449 2449.4414673522115 3298.8051023557782 197.93809843063354 1717.4824797771871 6692.9036934897304 3.0156619474291793 5.7245269715785962
leaf_count=102 121100 89010 12814 9122 23957 61625 880 14449 296081 27 89
internal_value=0.00373129 -0.0681774 -0.027634 -0.127571 -0.0493314 -0.0856703 -0.169369 0.0364163 0.21875 0.219188 -0.0452041
internal_weight=26762.1 20055.1 11919 8136.12 8903.03 4063.02 4073.11 3015.96 6707.03 6695.92 11.1067
internal_count=629256 332957 140230 192727 112967 70747 121980 27263 296299 296108 191
is_linear=0
shrinkage=0.214006


Tree=15
num_leaves=9
num_cat=0
split_feature=107 83 65 77 66 72 80 57
split_gain=6998.3 939.616 422.107 409.418 120.738 92.7248 41.4243 11.7405
threshold=12.421003955721245 5.5000000000000009 1.0000000180025095e-35 1.0000000180025095e-35 1.0000000180025095e-35 1.0000000180025095e-35 1.5000000000000002 1.0000000180025095e-35
decision_type=8 10 10 10 10 10 10 10
left_child=1 4 3 -3 5 -1 -4 -6
right_child=-2 2 6 -5 7 -7 -8 -9
leaf_value=-0.1747460127479836 0.21808005499385449 -0.081418691937926113 0.015082262835126578 0.012713075492579001 -0.0102340991165923 -0.079607665591783033 0.080401785870305109 0.1169345186208418
leaf_weight=3096.7684886436909 5424.8365660123527 7950.7876245435327 3829.9459308087826 2883.6556184068322 75.376584228128195 552.95264885760844 503.05768185853958 59.490761581808329
leaf_count=105213 296060 155685 16255 38436 757 14211 2094 545
internal_value=0.00375745 -0.0575903 -0.0337876 -0.0563649 -0.152984 -0.160332 0.0226658 0.0458607
internal_weight=24376.9 18952 15167.4 10834.4 3784.59 3649.72 4333 134.867
internal_count=629256 333196 212470 194121 120726 119424 18349 1302
is_linear=0
shrinkage=0.214006


Tree=16
num_leaves=9
num_cat=0
split_feature=107 83 58 80 65 58 66 80
split_gain=5447.65 778.912 416.499 219.023 193.832 61.0436 34.6474 34.2116
threshold=12.421003955721245 4.5000000000000009 2.5000000000000004 1.0000000180025095e-35 1.0000000180025095e-35 1.5000000000000002 1.0000000180025095e-35 1.0000000180025095e-35
decision_type=8 10 10 10 10 10 10 10
left_child=1 5 3 -3 -4 7 -7 -1
right_child=-2 2 4 -5 -6 6 -8 -9
leaf_value=-0.14132366917937203 0.21727498037814399 -0.038340341267653039 -0.10167375634323772 0.023769460548075067 0.0072423083678284641 -0.17569096179379268 0.011876762556058611 -0.018465169554477683
leaf_weight=215.655757188797 4394.1330778915435 4997.2121331561357 4027.2981676310301 5421.1826980225742 919.11638975143433 2121.8503709323704 46.08264459297061 200.13995306380093
leaf_count=6551 296060 65031 105914 58879 3993 87315 501 5012
internal_value=0.00370455 -0.0485814 -0.0302998 -0.00602168 -0.0814356 -0.157298 -0.171704 -0.0821867
internal_weight=22342.7 17948.5 15364.8 10418.4 4946.41 2583.73 2167.93 415.796
internal_count=629256 333196 233817 123910 109907 99379 87816 11563
is_linear=0
shrinkage=0.214006


Tree=17
num_leaves=12
num_cat=0
split_feature=107 82 83 57 65 66 83 65 78 102 91
split_gain=4256.18 666.409 233.253 208.432 142.572 128.245 125.733 86.6161 12.9406 13.4558 10.4149
threshold=-3.9840529437051555 1.0000000180025095e-35 7.5000000000000009 1.0000000180025095e-35 1.0000000180025095e-35 1.0000000180025095e-35 9.5000000000000018 1.0000000180025095e-35 1.0000000180025095e-35 1.9888708801234549 1.0000000180025095e-35
decision_type=10 10 10 10 10 10 10 10 10 10 10
left_child=8 2 7 4 -3 -4 -5 -2 9 10 -1
right_child=1 3 5 6 -6 -7 -8 -9 -10 -11 -12
leaf_value=0.21666792579251282 -0.15279879475426245 -0.062796888784973359 -0.070287628191574081 -0.011624095589404094 0.018590392775851866 0.095538943098153986 0.050866290914704383 -0.0032204925392886018 -0.29242778179439799 0.85664029555450694 -0.081787969284393358
leaf_weight=3561.2169214878231 2586.4659507721663 3652.2478440850973 3259.8652438391 3055.00977075845 1350.1852648183703 228.56872870028019 2850.4956524372101 190.35038430988789 2.2897647563368073 1.5031831506639708 5.3629201892763367
leaf_count=296147 121107 64066 68253 44614 5978 2494 25562 879 23 17 116
internal_value=0.00356261 -0.0406378 -0.0962632 -0.00868788 -0.04083 -0.0594224 0.018539 -0.142545 0.216163 0.216489 0.216219
internal_weight=20743.6 17173.2 6265.25 10907.9 5002.43 3488.43 5905.51 2776.82 3570.37 3568.08 3566.58
internal_count=629256 332953 192733 140220 70044 70747 70176 121986 296303 296280 296263
is_linear=0
shrinkage=0.214006


Tree=18
num_leaves=14
num_cat=0
split_feature=84 64 65 64 83 66 57 107 95 83 56 64 107
split_gain=3340.27 556.975 296.398 198.537 192.407 150.106 31.2871 20.0705 14.355 14.8547 6.66171 6.42551 7.19921
threshold=-3.2162233890536194 1.0000000180025095e-35 1.0000000180025095e-35 2.5000000000000004 9.5000000000000018 1.0000000180025095e-35 1.0000000180025095e-35 -1.9763735867501715 1.5000000000000002 8.5000000000000018 1.0000000180025095e-35 1.5000000000000002 -1.1308317037248994
decision_type=10 8 10 10 10 10 10 10 8 8 8 8 10
left_child=8 2 4 5 -2 -3 -5 -4 11 -10 -11 12 -1
right_child=1 3 7 6 -6 -7 -8 -9 9 10 -12 -13 -14
leaf_value=-0.24882668811726663 -0.12959163236270821 -0.026667579564420025 0.1452050784484141 0.034934149475276184 -0.035447001836410995 0.061610178229416487 0.092357432259080996 0.0035489334443293118 0.89066445986142895 -0.2965559191676429 0.2162610494427499 0.18342217555830731 0.12279383346505449
leaf_weight=5.7405788963660607 3868.2004006514326 7262.4045718405396 47.541705951094627 869.78408222272992 1338.1556709334254 1004.1354933511466 868.42212532833219 1255.9935222789645 1.4956710906699289 1.1606144979596127 2879.2261084802449 6.2385550756007424 4.0873836847022185
leaf_count=137 147843 127460 213 10362 25681 7429 8370 5499 31 11 296068 64 88
internal_value=0.00336357 -0.033823 -0.082545 -0.00212053 -0.105394 -0.0159445 0.0636233 0.00871533 0.21528 0.216405 0.216054 0.0135552 -0.0942722
internal_weight=19412.6 16514.6 6509.89 10004.7 5206.36 8266.54 1738.21 1303.54 2897.95 2881.88 2880.39 16.0665 9.82796
internal_count=629256 332857 179236 153621 173524 134889 18732 5712 296399 296110 296079 289 225
is_linear=0
shrinkage=0.214006


Tree=19
num_leaves=9
num_cat=0
split_feature=107 83 73 57 69 58 80 100
split_gain=2630.27 477.853 262.431 219.695 65.5848 44.6811 34.2561 22.4983
threshold=12.421003955721245 4.5000000000000009 2.5000000000000004 1.0000000180025095e-35 1.0000000180025095e-35 1.5000000000000002 1.0000000180025095e-35 -0.99086229572365003
decision_type=8 10 10 10 10 10 10 10
left_child=1 4 3 -3 5 -1 -4 -6
right_child=-2 2 6 -5 7 -7 -8 -9
leaf_value=-0.063418331528083863 0.21570105754862071 -0.063339549616421242 0.013403986704058984 -0.0013221290747313355 0.26902848084484016 -0.15392470196863489 0.054635752244646729 -0.0018023809623027845
leaf_weight=300.98199373297393 2327.1199636664242 5136.0037506427616 1795.6675085667521 5331.8377181747928 18.649699934758246 1469.490692791529 1898.5595813347027 56.929071815684438
leaf_count=10706 296060 106952 22774 85002 555 86293 19089 1825
internal_value=0.00311068 -0.0277938 -0.0144444 -0.0317507 -0.130204 -0.138539 0.0345941 0.0650274
internal_weight=18335.2 16008.1 14162.1 10467.8 1846.05 1770.47 3694.23 75.5788
internal_count=629256 333196 233817 191954 99379 96999 41863 2380
is_linear=0
shrinkage=0.214006


Tree=20
num_leaves=9
num_cat=0
split_feature=85 82 58 65 66 64 100 83
split_gain=2078.69 375.982 185.46 162.666 128.176 105.634 42.3265 33.8626
threshold=8.926112371415865 1.0000000180025095e-35 1.5000000000000002 1.0000000180025095e-35 1.0000000180025095e-35 1.0000000180025095e-35 -1.2820468767222715 2.5000000000000004
decision_type=8 10 10 10 10 10 10 10
left_child=1 2 7 -4 5 -3 -6 -1
right_child=-2 4 3 -5 6 -7 -8 -9
leaf_value=-0.13317219509637071 0.21535048225729891 -0.042142101420235306 -0.10720413031457569 0.01234908525337421 0.17089471923726285 0.007492797971987872 0.047192857621271331 0.020700280344368438
leaf_weight=70.147660603746772 1881.526378903538 2935.0692931320518 3570.2320802658796 610.33148267120123 139.69448384642601 5933.7150379680097 1359.8805160857737 988.91811505891383
leaf_count=4150 296071 56426 168310 2798 927 73666 9301 17607
internal_value=0.00285485 -0.0227613 -0.0694853 -0.0897502 0.000850649 -0.00893356 0.0587164 0.0105085
internal_weight=17489.5 15608 5239.63 4180.56 10368.4 8868.78 1499.57 1059.07
internal_count=629256 333185 192865 171108 140320 130092 10228 21757
is_linear=0
shrinkage=0.214006


Tree=21
num_leaves=10
num_cat=0
split_feature=107 83 87 57 57 80 75 107 54
split_gain=1649.4 320.171 189.805 135.291 111.403 64.6609 37.6488 23.5712 2.68401
threshold=12.421003955721245 4.5000000000000009 1.0000000180025095e-35 1.0000000180025095e-35 1.0000000180025095e-35 1.0000000180025095e-35 1.0000000180025095e-35 -1.6520561521651358 1.0000000180025095e-35
decision_type=8 10 10 10 10 10 10 10 8
left_child=1 5 4 -4 -3 7 -7 -1 -2
right_child=8 2 3 -5 -6 6 -8 -9 -10
leaf_value=0.0034087370856531111 -0.28406570040638462 -0.009886036628551375 -0.077869682754344541 -0.011722243821798289 0.041794362110167065 -0.068266674614610182 0.1619977913426689 -0.15271949084408018 0.21524281816928645
leaf_weight=46.53514061961323 0.49321845546364684 4126.2322774939239 2274.9279688727111 3751.1314259972423 3557.0760912243277 537.35715656075627 34.614732895046473 916.49260471016169 1520.3675690060481
leaf_count=2369 5 71206 56819 60699 45093 29283 1321 66406 296055
internal_value=0.00256354 -0.0186383 -0.00826048 -0.0366939 0.01404 -0.111325 -0.0543315 -0.145175 0.215081
internal_weight=16765.2 15244.4 13709.4 6026.06 7683.31 1535 571.972 963.028 1520.86
internal_count=629256 333196 233817 117518 116299 99379 30604 68775 296060
is_linear=0
shrinkage=0.214006


Tree=22
num_leaves=10
num_cat=0
split_feature=107 83 80 65 69 64 107 65 54
split_gain=1312.44 269.624 258.634 183.787 86.8 41.8862 28.7557 14.4356 2.13961
threshold=12.421003955721245 10.500000000000002 1.0000000180025095e-35 1.0000000180025095e-35 1.0000000180025095e-35 2.5000000000000004 -0.98411667379357415 1.0000000180025095e-35 1.0000000180025095e-35
decision_type=8 10 10 10 10 10 10 10 8
left_child=1 2 3 -1 -4 6 -3 -7 -2
right_child=8 5 4 -5 -6 7 -8 -9 -10
leaf_value=-0.086901252922406913 -0.27012318466433016 0.07869184495482251 -0.014945593329606462 0.0083823716894916665 0.049515042882670994 0.10470902690184247 0.014785391080119966 0.039978513213238892 0.21505395526791696
leaf_weight=4247.5828948402777 0.41642164811491866 357.71651884540915 3995.093650650233 1185.9663905203342 1257.9625035626814 405.83431665599346 3272.5469816736877 258.15543915331364 1228.4163336995989
leaf_count=170126 5 4150 92041 5327 13844 5314 41294 1100 296055
internal_value=0.00227109 -0.0151693 -0.0333689 -0.0661039 0.000490957 0.0301218 0.0210826 0.0795422 0.21489
internal_weight=16209.7 14980.9 10686.6 5433.55 5253.06 4294.25 3630.26 663.99 1228.83
internal_count=629256 333196 281338 175453 105885 51858 45444 6414 296060
is_linear=0
shrinkage=0.214006


Tree=23
num_leaves=10
num_cat=0
split_feature=107 58 83 58 65 83 57 65 54
split_gain=1047.59 227.647 160.99 106.14 81.5237 72.7683 55.698 21.8148 1.71072
threshold=12.421003955721245 2.5000000000000004 8.5000000000000018 1.0000000180025095e-35 1.0000000180025095e-35 2.5000000000000004 1.0000000180025095e-35 1.0000000180025095e-35 1.0000000180025095e-35
decision_type=8 10 10 10 10 10 10 10 8
left_child=1 3 4 7 -3 -5 -4 -1 -2
right_child=8 2 6 5 -6 -7 -8 -9 -10
leaf_value=0.082948086262494142 -0.25889171605733524 -0.11543975110063871 -0.052768171929498245 -0.10733198808140679 0.028347064254206439 -3.4962891137502205e-05 0.010910614956052351 0.029920869684704077 0.21491127968199014
leaf_weight=788.99693267606199 0.34913181886076827 1693.4414707287215 1142.5082618957385 299.62017888668925 202.14939399808645 8553.9098309432156 1399.8368762172759 646.40269447863102 992.33836538018659
leaf_count=10733 5 108683 32152 22691 959 130534 24676 2768 296055
internal_value=0.00195476 -0.0123887 -0.0529019 0.00508593 -0.100106 -0.0036661 -0.0177061 0.0590684 0.214745
internal_weight=15719.6 14726.9 4437.94 10288.9 1895.59 8853.53 2542.35 1435.4 992.687
internal_count=629256 333196 166470 166726 109642 153225 56828 13501 296060
is_linear=0
shrinkage=0.214006


Tree=24
num_leaves=10
num_cat=0
split_feature=107 83 66 73 72 66 97 107 54
split_gain=837.962 173.454 128.32 117.346 39.1821 29.8682 28.1323 22.2869 1.37102
threshold=12.421003955721245 3.5000000000000004 1.0000000180025095e-35 1.0000000180025095e-35 1.0000000180025095e-35 1.0000000180025095e-35 -1.6805427405508768 -1.6752216832069242 1.0000000180025095e-35
decision_type=8 10 10 10 10 10 10 10 8
left_child=1 4 3 -3 5 -1 -6 -4 -2
right_child=8 2 7 -5 6 -7 -8 -9 -10
leaf_value=-0.12756283047442263 -0.24990227092531517 -0.025910468210871822 0.12744325118111666 0.020741766842861289 0.79442181255345323 0.10077573744100783 0.00029836564627703474 0.042185846519396698 0.21480693616655044
leaf_weight=740.59215784212574 0.29086535051464935 8379.190655071754 153.77593953534961 3501.0378547739238 2.0808851728215805 27.199852095916867 112.40765095129609 1617.1300684381276 801.50311546400189
leaf_count=70897 5 195427 1030 47407 87 385 5722 12241 296055
internal_value=0.00165489 -0.0100952 -0.00415155 -0.0121623 -0.102059 -0.119474 0.0147319 0.0495891 0.214638
internal_weight=15335.2 14533.4 13651.1 11880.2 882.281 767.792 114.489 1770.91 801.794
internal_count=629256 333196 256105 242834 77091 71282 5809 13271 296060
is_linear=0
shrinkage=0.214006


Tree=25
num_leaves=10
num_cat=0
split_feature=107 83 80 65 57 65 57 100 59
split_gain=671.172 142.254 149.688 112.109 58.8853 50.0267 31.8458 14.2131 1.68993
threshold=12.421003955721245 11.500000000000002 1.0000000180025095e-35 1.0000000180025095e-35 1.0000000180025095e-35 1.0000000180025095e-35 1.0000000180025095e-35 1.7093866161731204 -0.43040070265118696
decision_type=8 10 10 10 10 10 10 10 8
left_child=1 2 3 -1 -4 6 -3 -7 -2
right_child=8 5 4 -5 -6 7 -8 -9 -10
leaf_value=-0.059766551564468334 0.83556623666663565 0.035999548544716875 -0.019211532602256672 0.007829487067722395 0.023203160756849767 -0.0031032596712182391 0.10091362929190605 0.12484818735983164 0.21437170754966156
leaf_weight=4317.9021134139039 0.20063257776200771 753.45667173527181 2560.5580287524499 1519.0164218433201 3616.1929052108899 922.49395261704922 640.22168951109052 41.551334142684937 647.3222522684373
leaf_count=181848 5 14433 56418 6804 60907 4002 8604 180 296055
internal_value=0.00143373 -0.00816915 -0.0176015 -0.0421752 0.00562025 0.0398927 0.0658195 0.00241158 0.214564
internal_weight=15018.9 14371.4 12013.7 5836.92 6176.75 2357.72 1393.68 964.045 647.523
internal_count=629256 333196 305977 188652 117325 27219 23037 4182 296060
is_linear=0
shrinkage=0.214006


Tree=26
num_leaves=11
num_cat=0
split_feature=107 69 83 65 65 104 89 85 54 0
split_gain=537.99 124.813 130.794 147.28 31.4232 44.3397 30.3035 13.6609 1.95524 1.7309
threshold=12.421003955721245 1.0000000180025095e-35 9.5000000000000018 1.0000000180025095e-35 1.0000000180025095e-35 -1.541637328987747 1.0000000180025095e-35 1.9213740960268983 1.0000000180025095e-35 1.0000000180025095e-35
decision_type=8 10 10 10 10 10 10 10 10 8
left_child=1 2 3 -1 5 -3 -4 -6 9 -2
right_child=8 4 6 -5 7 -7 -8 -9 -10 -11
leaf_value=-0.054174911822509074 -0.24546389136156008 0.20499161088420612 0.035604949999390401 0.023777107987327271 0.015764620638487041 0.049014903697158878 -0.00078806591075870414 -0.087455835743293617 0.92334589172681414 0.21438528228409121
leaf_weight=4912.2827701978385 0.37514917552471061 89.271611397154629 1407.299957703799 1434.1219308190048 939.31970165669918 1284.1515697338618 4102.8714807545766 62.637474425137043 0.17805394530296226 522.74707966321148
leaf_count=226673 5 1228 19834 6412 4045 20125 54610 269 1 296054
internal_value=0.00119038 -0.00664541 -0.0156158 -0.0365598 0.0381297 0.0591533 0.00850672 0.00931178 0.214297 0.214056
internal_weight=14755.3 14232 11856.6 6346.4 2375.38 1373.42 5510.17 1001.96 523.3 523.122
internal_count=629256 333196 307529 233085 25667 21353 74444 4314 296060 296059
is_linear=0
shrinkage=0.214006


Tree=27
num_leaves=9
num_cat=0
split_feature=0 87 57 65 71 57 80 65
split_gain=432.11 105.169 83.8456 66.0164 60.0536 61.3973 38.7493 23.3432
threshold=inf 1.0000000180025095e-35 1.0000000180025095e-35 1.0000000180025095e-35 1.0000000180025095e-35 1.0000000180025095e-35 1.5000000000000002 1.0000000180025095e-35
decision_type=8 10 10 10 10 10 10 10
left_child=1 4 3 -3 5 -1 -4 -6
right_child=-2 2 6 -5 7 -7 -8 -9
leaf_value=-0.015014117082037473 0.21431211680936416 -0.07902416117208147 -0.016175893372293148 0.0098504893631358396 0.095200392764442629 0.025112653494292349 0.044981891394336511 0.0276686604531012
leaf_weight=3676.5622586263344 422.16456938860938 1743.2241326649673 3369.2640329068527 490.47905974462628 472.76728434767574 3326.3770450018346 552.24347037170082 464.98365700989962
leaf_count=85902 296054 82675 81652 2359 7446 59202 11961 2005
internal_value=0.000970972 -0.00541848 -0.0264142 -0.059509 0.0108564 0.00404599 -0.00756339 0.0617148
internal_weight=14518.1 14095.9 6155.21 2233.7 7940.69 7002.94 3921.51 937.751
internal_count=629256 333202 178647 85034 154555 145104 93613 9451
is_linear=0
shrinkage=0.214006


Tree=28
num_leaves=13
num_cat=0
split_feature=84 83 107 58 75 76 63 106 106 34 59 104
split_gain=347.496 99.654 82.9673 86.5142 28.5924 24.6166 19.2062 13.1227 9.81319 9.19104 10.8013 1.72613
threshold=-3.4511212522079009 2.5000000000000004 -1.0748483370405779 3.5000000000000004 1.0000000180025095e-35 1.0000000180025095e-35 -1.7230323361415996 3.5495231535818483 2.2703859497643442 1.0000000180025095e-35 -0.43040070265118696 -0.33342075652363451
decision_type=10 10 10 10 10 10 10 8 10 8 8 10
left_child=8 5 4 -4 -3 7 -7 -2 9 11 -11 -1
right_child=1 2 3 -5 -6 6 -8 -9 -10 10 -12 -13
leaf_value=-0.057307986401796969 -0.12791540171551183 0.030335036872472125 -0.0024115553397433469 -0.072374351561848779 0.10542434011158737 0.2353495191352849 -0.042940254287150863 0.52677029826905031 1.2345861944311283 1.2985522711089676 0.21393848887437633 0.1079579620014102
leaf_weight=6.062997474335134 376.45713875070214 1513.6633875761181 10838.048324562609 874.81744018103927 274.33707308303565 12.873616245575247 96.468047945294529 1.407436498440801 0.42773539572954078 0.42102897120639682 341.63319229125045 5.5383523562923056
leaf_count=123 46177 27326 207845 38710 3279 712 8808 100 3 13 296070 90
internal_value=0.000786203 -0.00451369 -0.00108231 -0.00763698 0.0418562 -0.0996002 -0.0101751 -0.125477 0.210159 0.20892 0.215274 0.0215881
internal_weight=14342.2 13988.1 13500.9 11712.9 1788 487.206 109.342 377.865 354.083 353.656 342.054 11.6013
internal_count=629256 332957 277160 246555 30605 55797 9520 46277 296299 296296 296083 213
is_linear=0
shrinkage=0.214006


Tree=29
num_leaves=9
num_cat=0
split_feature=0 82 64 73 95 66 91 93
split_gain=279.704 80.7398 80.3384 51.039 46.4648 39.1679 36.1592 8.41472
threshold=inf 1.0000000180025095e-35 1.0000000180025095e-35 2.5000000000000004 2.5000000000000004 1.0000000180025095e-35 2.5000000000000004 1.0000000180025095e-35
decision_type=8 10 10 10 10 10 10 10
left_child=1 2 3 -1 6 -4 -3 -6
right_child=-2 4 5 -5 7 -7 -8 -9
leaf_value=-0.077480968069350176 0.21420550772336325 0.0091010331098152208 -0.011404481610733451 0.029538988060752249 0.042597190390401309 0.086010189662890271 -0.025153016978164234 0.091791039779659134
leaf_weight=1532.8889827360399 275.37663877522573 7254.727560730651 2117.8135675201192 235.43815255258232 619.25687168724835 207.55747953429818 1752.2936247577891 214.37472412362695
leaf_count=113142 296054 99527 70563 6970 6774 2204 31251 2771
internal_value=0.000624776 -0.0035961 -0.028853 -0.0632321 0.00691075 -0.00270946 0.00243699 0.0552478
internal_weight=14209.7 13934.4 4093.7 1768.33 9840.65 2325.37 9007.02 833.632
internal_count=629256 333202 192879 120112 140323 72767 130778 9545
is_linear=0
shrinkage=0.214006


Tree=30
num_leaves=9
num_cat=0
split_feature=0 62 57 65 61 71 83 57
split_gain=225.212 65.0355 63.4703 57.9582 31.2754 17.8957 16.6281 15.2284
threshold=inf 1.0000000180025095e-35 1.0000000180025095e-35 1.0000000180025095e-35 2.5000000000000004 1.0000000180025095e-35 5.5000000000000009 1.0000000180025095e-35
decision_type=8 10 10 10 10 10 10 10
left_child=1 5 3 -3 -4 7 -7 -1
right_child=-2 2 4 -5 -6 6 -8 -9
leaf_value=-0.00028656937993019904 0.21416704850703069 -0.049699699818951053 -0.042581584894627884 0.010825703801520339 0.0076639483643515076 0.2513354455584641 0.045762458152909205 0.025980059007062056
leaf_weight=2063.0547099341638 222.35902950889431 2863.1813556910492 644.520357940346 970.0905227586627 4739.2476517171599 18.593549833633006 584.53370915260166 1982.0687758983113
leaf_count=42591 296054 126220 29276 4567 94819 503 5059 30167
internal_value=0.000498824 -0.00292779 -0.0133362 -0.0343825 0.00164878 0.0177112 0.0521 0.0125838
internal_weight=14087.6 13865.3 9217.04 3833.27 5383.77 4648.25 603.127 4045.12
internal_count=629256 333202 254882 130787 124095 78320 5562 72758
is_linear=0
shrinkage=0.214006


Tree=31
num_leaves=9
num_cat=0
split_feature=0 83 83 73 65 66 75 104
split_gain=181.429 57.3389 48.4009 52.2865 33.7768 20.8878 19.0268 9.98598
threshold=inf 2.5000000000000004 11.500000000000002 1.0000000180025095e-35 1.0000000180025095e-35 1.0000000180025095e-35 1.0000000180025095e-35 -0.5483507008683125
decision_type=8 10 10 10 10 10 10 8
left_child=1 5 3 -3 -4 6 -1 -7
right_child=-2 2 4 -5 -6 7 -8 -9
leaf_value=-0.10169478619165424 0.21413601026092804 -0.016254840237211306 0.047823449145404873 0.015375466509891789 -0.0037623642963869994 0.28902897037779379 0.10923491015237169 -0.010255481151728351
leaf_weight=380.62376277660951 179.5432464905316 7389.1432745745406 1467.1087242746726 3540.290595757775 962.8045243024826 9.6493404963985068 20.648305411916226 10.844021137803795
leaf_count=53717 296054 202468 23037 47676 4182 139 1829 154
internal_value=0.00039658 -0.00238806 6.46779e-05 -0.00600907 0.0273836 -0.0800782 -0.090841 0.130663
internal_weight=13960.7 13781.1 13359.3 10929.4 2429.91 421.765 401.272 20.4934
internal_count=629256 333202 277363 250144 27219 55839 55546 293
is_linear=0
shrinkage=0.214006


Tree=32
num_leaves=9
num_cat=0
split_feature=0 66 58 77 73 65 82 110
split_gain=146.225 50.8774 61.2604 38.6073 27.8825 22.8672 22.024 8.68825
threshold=inf 1.0000000180025095e-35 3.5000000000000004 1.0000000180025095e-35 1.5000000000000002 1.0000000180025095e-35 1.0000000180025095e-35 1.4562207984277906
decision_type=8 10 10 10 10 10 10 10
left_child=1 2 3 -1 -4 6 -3 -7
right_child=-2 5 4 -5 -6 7 -8 -9
leaf_value=-0.011559406519782971 0.21411095802286384 0.11476227968565138 -0.072825925201356154 0.015432861639166488 0.064025337838972227 -0.01018009107598539 0.036020325649184656 0.061478004926121141
leaf_weight=7416.9005609117448 144.96814967563841 194.96112548653036 809.08771547814831 3607.1250070095994 74.459619276691228 576.78007809072733 982.51610676012933 89.518482521176338
leaf_count=221750 296054 3118 50996 44658 2009 2518 7755 398
internal_value=0.00030323 -0.00195075 -0.00707298 -0.00272738 -0.061293 0.0311299 0.049058 -0.000552689
internal_weight=13896.3 13751.3 11907.6 11024 883.547 1843.78 1177.48 666.299
internal_count=629256 333202 319413 266408 53005 13789 10873 2916
is_linear=0
shrinkage=0.214006


Tree=33
num_leaves=11
num_cat=0
split_feature=107 80 83 73 100 87 107 93 54 0
split_gain=117.896 47.8656 54.078 42.4357 27.3147 25.7156 15.1717 9.85248 1.22314 0.415434
threshold=12.421003955721245 1.0000000180025095e-35 9.5000000000000018 2.5000000000000004 -0.94051768628423094 1.0000000180025095e-35 1.4405422419135996 1.5000000000000002 1.0000000180025095e-35 1.0000000180025095e-35
decision_type=8 10 10 10 10 10 10 10 8 8
left_child=1 2 3 -1 7 -6 -4 -3 -2 -10
right_child=8 4 6 -5 5 -7 -8 -9 9 -11
leaf_value=-0.048385846452746815 -0.23709844474523656 0.030959366887259376 0.00014263055807550834 0.0081385802760695677 0.017639555262419646 -0.010244906858876244 0.052430791325867691 0.080311383705765266 0.49266071131280453 0.21409076327589435
leaf_weight=2452.0302356618922 0.27511012740433116 845.9808235000819 2992.3397186808288 808.97900325246155 3312.966764554847 2790.5121004388202 277.73137078434229 237.20972192985937 0.24569511413574119 117.04891615902307
leaf_count=142023 5 14385 44297 14922 47953 61788 3182 4646 1 296054
internal_value=0.000226678 -0.00160221 -0.014863 -0.0343635 0.0104488 0.00489077 0.00458353 0.041767 0.213617 0.214674
internal_weight=13835.3 13717.7 6531.08 3261.01 7186.67 6103.48 3270.07 1083.19 117.57 117.295
internal_count=629256 333196 204424 156945 128772 109741 47479 19031 296060 296055
is_linear=0
shrinkage=0.214006


Tree=34
num_leaves=9
num_cat=0
split_feature=0 75 57 71 61 83 74 69
split_gain=95.0737 41.3029 46.2066 46.0278 27.491 13.1367 13.1025 10.4338
threshold=inf 1.0000000180025095e-35 1.0000000180025095e-35 1.0000000180025095e-35 2.5000000000000004 5.5000000000000009 1.0000000180025095e-35 1.0000000180025095e-35
decision_type=8 10 10 10 10 10 10 10
left_child=1 2 3 -1 -4 6 -3 -7
right_child=-2 5 4 -5 -6 7 -8 -9
leaf_value=-0.026693057387968708 0.21407444043564736 0.075256934172688902 -0.031718866935840723 0.037345558214543696 0.011160992128798664 0.016720764952240664 0.28324689086229471 0.062201078345864719
leaf_weight=4848.0509919947945 94.50508540822193 84.801879826467484 769.65033303177916 574.99554877541959 6208.0556141557172 856.69537161942571 16.584203665610403 316.31751366145909
leaf_count=159441 296054 3740 34521 7244 114544 10609 465 2638
internal_value=0.000163419 -0.00131486 -0.00508519 -0.0199032 0.00643129 0.0353729 0.109279 0.0289851
internal_weight=13769.7 13675.2 12400.8 5423.05 6977.71 1274.4 101.386 1173.01
internal_count=629256 333202 315750 166685 149065 17452 4205 13247
is_linear=0
shrinkage=0.214006


Tree=35
num_leaves=9
num_cat=0
split_feature=0 95 83 65 89 80 83 42
split_gain=76.6865 36.917 37.2569 41.786 29.2249 16.3723 19.8996 8.84015
threshold=inf 1.0000000180025095e-35 8.5000000000000018 1.0000000180025095e-35 1.0000000180025095e-35 2.5000000000000004 11.500000000000002 1.0000000180025095e-35
decision_type=8 10 10 10 10 10 10 10
left_child=1 2 3 -1 -4 6 -3 -7
right_child=-2 5 4 -5 -6 7 -8 -9
leaf_value=-0.049272858587087985 0.2140612435538416 0.00049638975814248073 0.02577282944176016 0.02013678618990036 -0.010802912082761967 0.035483283193052183 0.034191035147858817 0.19212618518939895
leaf_weight=1790.7566906972788 76.302244108403102 4355.0523601132445 1361.3021777132526 510.46466847881675 3774.9395766928792 841.1910155992955 984.13949271012098 16.830374795477837
leaf_count=116266 296054 110107 22363 2334 56903 14897 10026 306
internal_value=0.000114752 -0.00108253 -0.0112474 -0.0338762 -0.00110893 0.0111167 0.00670711 0.0385559
internal_weight=13711 13634.7 7437.46 2301.22 5136.24 6197.21 5339.19 858.021
internal_count=629256 333202 197866 118600 79266 135336 120133 15203
is_linear=0
shrinkage=0.214006


Tree=36
num_leaves=8
num_cat=0
split_feature=0 64 91 61 56 85 110
split_gain=61.8712 32.2699 34.0711 23.5701 17.8083 13.0628 8.82561
threshold=inf 2.5000000000000004 2.5000000000000004 2.5000000000000004 1.0000000180025095e-35 3.5529035779434572 3.7525343247611929
decision_type=8 10 10 10 10 10 10
left_child=1 2 3 -1 -4 6 -3
right_child=-2 5 4 -5 -6 -7 -8
leaf_value=-0.030263440796343972 0.21405062536314351 0.022417400370504666 0.013466415457936018 0.004601359240861848 -0.035655253238263594 0.28030279684413367 0.14224040165292506
leaf_weight=993.97683335398324 61.604838965722593 1784.6672651120462 405.23696274822578 8333.4930506949313 2037.4253789903596 9.1752026132307929 28.603698380291462
leaf_count=46133 296054 18413 16304 179736 72268 101 247
internal_value=6.67194e-05 -0.000903107 -0.0050062 0.00088601 -0.027506 0.0255964 0.0243076
internal_weight=13654.2 13592.6 11770.1 9327.47 2442.66 1822.45 1813.27
internal_count=629256 333202 314441 225869 88572 18761 18660
is_linear=0
shrinkage=0.214006


Tree=37
num_leaves=9
num_cat=0
split_feature=0 83 57 69 76 84 110 109
split_gain=49.9161 26.2682 23.2942 41.0203 16.1654 15.69 12.8701 10.508
threshold=inf 2.5000000000000004 1.0000000180025095e-35 1.0000000180025095e-35 1.0000000180025095e-35 1.3407951561394305 1.0000000180025095e-35 1.7507092219667475
decision_type=8 10 10 10 10 10 10 10
left_child=1 4 3 -3 7 -4 -6 -1
right_child=-2 2 5 -5 6 -7 -8 -9
leaf_value=-0.093627263821895471 0.21404205134189608 -0.018577861831716759 0.013208177228307291 0.025587081335732613 0.15025656024772274 -0.013177845898646222 -0.028796732267810137 0.12064519996133224
leaf_weight=254.79883709317073 49.738036631373689 4594.5099230057094 6156.4441170468926 1218.6141833621077 24.870431271148846 1239.9918298569974 70.506025703623891 10.931575872469692
leaf_count=45146 296054 136087 102705 14450 2511 24121 7016 1166
internal_value=4.51493e-05 -0.000739174 0.000817559 -0.0093195 -0.0576856 0.00878463 0.0178933 -0.0848126
internal_weight=13620.4 13570.7 13209.6 5813.12 361.107 7396.44 95.3765 265.73
internal_count=629256 333202 277363 150537 55839 126826 9527 46312
is_linear=0
shrinkage=0.214006


Tree=38
num_leaves=9
num_cat=0
split_feature=0 87 74 58 90 107 102 63
split_gain=40.2822 25.9569 28.936 31.6821 15.5644 12.2115 11.8818 11.6059
threshold=inf 1.0000000180025095e-35 1.0000000180025095e-35 3.5000000000000004 1.0000000180025095e-35 -2.781375790452314 1.9888708801234549 1.6867846373969833
decision_type=8 10 10 10 10 10 10 10
left_child=1 5 3 -3 -4 6 -1 -7
right_child=-2 2 4 -5 -6 7 -8 -9
leaf_value=0.034501150846041329 0.21403509241837676 -0.012925374832282838 0.064863318509083931 -0.074528126722020957 0.0045863728813869027 0.0041735657240371945 0.20365925233482998 0.036585824856087912
leaf_weight=62.859285020502284 40.156838554801652 4348.4691267721355 282.81666109664366 419.21534959902056 640.54672536766157 7214.4624089321587 27.266272203065455 544.11512666917406
leaf_count=1020 296054 133555 5771 31500 7821 146239 272 7024
internal_value=1.2293e-05 -0.000622466 -0.0116265 -0.018342 0.0230486 0.00735646 0.0856777 0.00644666
internal_weight=13579.9 13539.8 5691.05 4767.68 923.363 7848.7 90.1256 7758.58
internal_count=629256 333202 178647 165055 13592 154555 1292 153263
is_linear=0
shrinkage=0.214006


Tree=39
num_leaves=9
num_cat=0
split_feature=0 107 57 65 86 75 65 22
split_gain=32.5089 22.9115 23.4093 31.7128 11.1445 7.8019 17.0915 9.94736
threshold=inf -1.0748483370405779 1.0000000180025095e-35 1.0000000180025095e-35 -0.17431945018303316 1.0000000180025095e-35 1.0000000180025095e-35 1.0000000180025095e-35
decision_type=8 10 8 10 10 10 10 10
left_child=1 5 3 -3 -4 7 -7 -1
right_child=-2 2 4 -5 -6 6 -8 -9
leaf_value=0.012598978714587792 0.21402950431059609 -0.026354440933142952 -0.0058070519021036571 0.011967989651451664 0.011723535940435488 0.085616030113907227 -0.022113495111785425 0.12852999440031729
leaf_weight=1570.2249964745715 32.421115238743369 3471.8645179013256 2954.235447341809 1382.8779418729246 3793.3709319247864 216.03863068320788 98.062126606702805 34.644862867426127
leaf_count=32758 296054 147784 67765 6458 74020 3267 429 721
internal_value=-9.54522e-06 -0.000522763 -0.00410542 -0.0154383 0.0040483 0.0211384 0.0519829 0.0151016
internal_weight=13553.7 13521.3 11602.3 4854.74 6747.61 1918.97 314.101 1604.87
internal_count=629256 333202 296027 154242 141785 37175 3696 33479
is_linear=0
shrinkage=0.214006


Tree=40
num_leaves=9
num_cat=0
split_feature=0 66 80 83 58 111 53 89
split_gain=26.2382 18.8895 27.1386 25.3839 22.7004 20.3571 13.4945 12.2869
threshold=inf 1.0000000180025095e-35 1.0000000180025095e-35 9.5000000000000018 3.5000000000000004 0.23025941757668164 1.0000000180025095e-35 1.0000000180025095e-35
decision_type=8 10 10 10 10 10 10 10
left_child=1 2 3 -1 6 -6 -3 -4
right_child=-2 4 7 -5 5 -7 -8 -9
leaf_value=-0.029154445269066312 0.21402498652195737 0.011411426265614883 0.018383129850605227 -9.0037205180101091e-05 0.10177442028367771 0.47284056140314745 0.096181881730803706 -0.0013825322669744828
leaf_weight=2741.1112795842346 26.175467779379687 1738.4259531795979 2329.1767816094216 2763.8542353995144 41.153599419631064 8.1046898830682021 90.480515138246119 3774.5218006230425
leaf_count=153855 296054 12469 59420 44017 526 99 695 62121
internal_value=-2.97452e-05 -0.000445186 -0.00366668 -0.0145622 0.0194664 0.162828 0.0156052 0.00616006
internal_weight=13513 13486.8 11608.7 5504.97 1878.16 49.2583 1828.91 6103.7
internal_count=629256 333202 319413 197872 13789 625 13164 121541
is_linear=0
shrinkage=0.214006


Tree=41
num_leaves=9
num_cat=0
split_feature=0 87 64 57 30 21 108 107
split_gain=21.1785 15.9513 20.4489 19.8595 10.9126 9.90773 9.81239 6.52508
threshold=inf 1.0000000180025095e-35 2.5000000000000004 1.0000000180025095e-35 1.0000000180025095e-35 1.0000000180025095e-35 3.1086871974894987 1.5795354281643286
decision_type=8 10 8 10 10 8 10 10
left_child=1 4 3 -3 5 -1 -4 -6
right_child=-2 2 6 -5 7 -7 -8 -9
leaf_value=0.0035846594373090605 0.21402134146507953 -0.032077833646220501 0.024231470597707843 -0.0037459815849076399 0.058263815366448236 0.050275894018789055 0.1418258184374733 0.27029403126373691
leaf_weight=7517.3992939968593 21.132912892018794 1690.258134017 456.85024642990902 3437.5325669364538 107.70452399016358 214.06711139553227 34.986549807246774 7.0845006341114631
leaf_count=148784 296054 82655 5262 90423 1883 3812 307 76
internal_value=-4.75867e-05 -0.000383539 -0.00908683 -0.0130849 0.00584991 0.00487744 0.0325965 0.0713498
internal_weight=13487 13465.9 5619.63 5127.79 7846.26 7731.47 491.837 114.789
internal_count=629256 333202 178647 173078 154555 152596 5569 1959
is_linear=0
shrinkage=0.214006


Tree=42
num_leaves=15
num_cat=0
split_feature=42 55 106 83 65 106 107 58 56 105 104 80 96 86
split_gain=18.8627 41.8578 45.7472 18.4859 20.5184 18.3593 17.8566 20.3977 12.1799 11.0612 9.00336 8.89706 10.3025 7.84609
threshold=1.0000000180025095e-35 1.0000000180025095e-35 3.485996979318184 11.500000000000002 1.0000000180025095e-35 3.028034276716856 -1.6520561521651358 3.5000000000000004 1.0000000180025095e-35 3.0665417483460291 -0.71940812706684731 1.5000000000000002 -0.14250138572355037 -0.78497687449317655
decision_type=8 8 10 10 10 10 10 10 10 10 10 10 10 10
left_child=3 11 5 6 8 -3 9 -8 -5 -1 -6 13 -13 -2
right_child=1 2 -4 4 10 -7 7 -9 -10 -11 -12 12 -14 -15
leaf_value=0.036549774190676232 -0.13278551194946678 0.19295977706420142 10.4239141265094 -0.016741876530794838 0.031491920276510849 0.88793276032860424 -0.0048988216083818963 -0.044197582077885898 0.038604956219942782 -0.036415047458814874 -0.020081912335984938 0.005004251006283769 0.2561018236932831 0.0092693366962882835
leaf_weight=669.09229679754935 20.142728828825057 55.595855881838361 0.020108805969356491 211.50717046484351 195.89547863602638 1.7971733254380513 9318.1303459058981 646.88157747755758 1309.7774703176692 110.93016926129349 743.01476173102856 16.536837552208457 13.669603108894078 153.57111605326645
leaf_count=12200 671 296872 1 2732 875 37 238738 48589 19922 1109 3223 343 271 3673
internal_value=-5.09724e-05 0.0568835 0.218298 -0.00117771 0.015556 0.214722 -0.00500909 -0.00744991 0.03091 0.0261731 -0.00932148 0.0114378 0.118636 -0.00720242
internal_weight=13466.6 261.333 57.4131 13205.2 2460.19 57.393 10745 9965.01 1521.28 780.022 938.91 203.92 30.2064 173.714
internal_count=629256 301868 296910 327388 26752 296909 300636 287327 22654 13309 4098 4958 614 4344
is_linear=0
shrinkage=0.214006


Tree=43
num_leaves=16
num_cat=0
split_feature=71 65 83 101 57 79 65 107 51 86 86 104 36 106 83
split_gain=16.3555 31.2588 21.0661 17.6205 16.872 24.1852 29.6991 12.384 11.367 11.0601 15.4784 10.4674 9.93831 8.81178 2.65371
threshold=1.0000000180025095e-35 1.0000000180025095e-35 6.5000000000000009 1.3097907300874123 1.0000000180025095e-35 1.0000000180025095e-35 1.0000000180025095e-35 3.193400757408912 1.0000000180025095e-35 -0.29358847836860807 1.5868865326906223 -1.2756251404473467 1.0000000180025095e-35 -0.2584582528445597 9.5000000000000018
decision_type=8 10 10 10 10 10 10 10 10 10 10 10 10 10 10
left_child=4 2 7 11 5 6 -1 -2 -7 12 -11 -3 -6 -4 -5
right_child=1 3 13 14 9 8 -8 -9 -10 10 -12 -13 -14 -15 -16
leaf_value=-0.029507533458282397 0.14756929468714067 0.096871463488336113 0.054523944802154806 -0.066990636972541512 -0.0085889774060378954 0.015857633456885515 0.011361635599373454 1.0853548361265943 0.18143014846015634 0.015017276511552352 -0.027067721868954273 -0.0074069280032401531 0.11614466305744744 0.001471884926811507 -0.14171238921183504
leaf_weight=3116.0397041877732 78.825522082413954 48.023022778332233 486.52020594198257 46.682362504303455 2467.0951409328263 909.72490523150191 1102.4442184641957 0.6502409391105165 19.394717337097973 3935.2373846225673 445.55921386671253 537.76327111199498 29.605897184228525 203.30591325741261 40.785811975598335
leaf_count=149163 298243 209 6989 201 59807 13851 5269 20 261 81118 8416 2336 646 2552 175
internal_value=-9.39454e-05 0.0214383 0.0509088 -0.0122365 -0.002677 -0.0119427 -0.0188269 0.155242 0.0193138 0.00425809 0.0107369 0.00114186 -0.00710989 0.0388884 -0.101833
internal_weight=13467.7 1442.56 769.302 673.254 12025.1 5147.6 4218.48 79.4758 929.12 6877.5 4380.8 585.786 2496.7 689.826 87.4682
internal_count=629256 310725 307804 2921 318531 168544 154432 298263 14112 149987 89534 2545 60453 9541 376
is_linear=0
shrinkage=0.214006


Tree=44
num_leaves=16
num_cat=0
split_feature=89 72 61 28 107 66 90 73 52 97 83 96 102 103 107
split_gain=15.9632 23.0709 20.3237 20.1015 16.5351 15.2222 14.1622 15.7206 12.4518 11.7014 11.0544 10.3294 9.91997 9.86135 9.04553
threshold=1.0000000180025095e-35 1.0000000180025095e-35 1.5000000000000002 1.0000000180025095e-35 0.94634424635544934 1.0000000180025095e-35 1.0000000180025095e-35 1.0000000180025095e-35 1.0000000180025095e-35 -1.0386271847239354 5.5000000000000009 -0.92474475608905571 1.4983273715276311 3.8132068145617892 1.0409368314427512
decision_type=10 8 10 8 10 8 10 10 10 10 10 10 10 10 10
left_child=1 2 13 10 6 -4 7 -2 -8 11 -3 -6 -5 -1 -11
right_child=4 3 5 12 9 -7 8 -9 -10 14 -12 -13 -14 -15 -16
leaf_value=-0.063021654956757794 -0.038489775157519009 0.067224729208057596 -0.0042835285387104764 0.22351014400727284 0.060016467193749472 0.050225861700376052 -0.0053654929913319908 0.0063063753597846555 0.10585838176998628 0.052301234492301202 0.017297766842693161 0.26949674271245938 -0.093678080083505949 0.22820557492885687 0.0025185107366287787
leaf_weight=288.67925877752714 1320.729959112592 224.1350031408947 1979.2843820039416 32.484940734844713 88.748059293488041 266.18667031172663 5193.9429252767004 492.61365886242129 46.511649085907266 196.25605970574543 2164.4467735546641 12.271229999372734 5.2448193510062984 5.4251355391461393 1127.4529310907237
leaf_count=21054 62167 9031 91884 296396 1538 2245 82892 8949 792 3129 32352 187 61 295 16284
internal_value=-0.000128086 0.00950747 -0.00475035 0.0244309 -0.00577165 0.00217822 -0.0100191 -0.0263204 -0.00437833 0.0152572 0.0219827 0.0854629 0.179418 -0.0576496 0.00989941
internal_weight=13444.4 4965.89 2539.58 2426.31 8478.53 2245.47 7053.8 1813.34 5240.45 1424.73 2388.58 101.019 37.7298 294.104 1323.71
internal_count=629256 453318 115478 337840 175938 94129 154800 71116 83684 21138 41383 1725 296457 21349 19413
is_linear=0
shrinkage=0.214006


Tree=45
num_leaves=14
num_cat=0
split_feature=83 68 102 89 103 86 107 74 63 65 106 107 98
split_gain=12.5043 14.846 17.9811 11.6272 20.1898 15.3272 11.667 11.2905 10.953 10.0247 9.22194 9.17258 8.33268
threshold=2.5000000000000004 1.0000000180025095e-35 -0.14289616571005673 1.0000000180025095e-35 3.5745364441583347 1.7085409414399091 0.25523923694209893 1.0000000180025095e-35 1.6867846373969833 1.0000000180025095e-35 -0.40094351376362508 -0.88952408870627153 2.1005032733750268
decision_type=8 8 10 10 8 10 8 10 10 10 10 10 10
left_child=1 7 -3 4 10 8 -6 11 -5 -7 -2 -1 -9
right_child=3 2 -4 5 6 9 -8 12 -10 -11 -12 -13 -14
leaf_value=0.011801133660380141 0.014000561946847363 -0.21784954447631652 0.97955922182433619 -0.0035705179847716636 0.046546279672802698 -0.016579857316828581 0.18323905432249427 0.18921947853629978 0.029722508198231818 -0.077047504038137468 -0.0060585889085404184 -0.075202873308100743 -0.2439551862830901
leaf_weight=72.645340917631984 3018.9423013704363 0.96990502579137716 1.4083643818739791 7322.6326022697613 83.007462844951078 342.01147050526924 43.626702147965261 14.145482781343164 482.37628926965408 198.41368445008993 1609.1510789047461 235.09176085109357 2.375332531053572
leaf_count=8463 77460 156 85 143395 1528 8118 296608 1199 5410 867 40031 45849 87
internal_value=-0.000145031 -0.0415045 0.491232 0.000886216 0.00933292 -0.00392621 0.0936383 -0.0454119 -0.00151289 -0.0387802 0.00702616 -0.0546644 0.126938
internal_weight=13426.8 326.636 2.37827 13100.2 4754.73 8345.43 126.634 324.258 7805.01 540.425 4628.09 307.737 16.5208
internal_count=629256 55839 241 573417 415627 157790 298136 55598 148805 8985 117491 54312 1286
is_linear=0
shrinkage=0.214006


Tree=46
num_leaves=16
num_cat=0
split_feature=75 61 73 65 61 110 60 56 91 62 35 58 55 41 107
split_gain=11.5116 17.6607 21.2864 20.2492 15.8447 13.9449 13.4663 12.8123 9.33365 14.3189 11.2071 8.80893 6.64669 8.25037 8.06718
threshold=1.0000000180025095e-35 2.5000000000000004 1.5000000000000002 1.0000000180025095e-35 1.5000000000000002 -0.38698871792028483 2.7109011415816799 1.0000000180025095e-35 1.0000000180025095e-35 1.0000000180025095e-35 1.0000000180025095e-35 2.5000000000000004 1.0000000180025095e-35 1.0000000180025095e-35 -0.60574633344436546
decision_type=8 10 10 10 10 10 10 10 8 10 10 10 10 10 10
left_child=1 2 3 -1 8 7 -7 -3 9 -2 -10 -4 13 -6 -14
right_child=4 5 11 -5 12 6 -8 -9 10 -11 -12 -13 14 -15 -16
leaf_value=-0.052082392660322406 0.18805800217978219 -0.01329956108334048 0.027109964929768249 0.025740593105048257 0.013032664806344709 -0.017709991131722825 0.014457468995979222 0.0098791501070928898 0.17472101697575437 -0.099374331887468123 0.93573410336777485 0.17712700040905932 0.1777470230833324 -0.096389915436974644 0.0095359369316381712
leaf_weight=848.06781905284151 14.906367665855216 1330.9669480377343 132.82461481844075 186.86376067623496 1174.7426706871483 2727.957020164351 762.66052555234637 6088.0448007435771 35.210836263628153 16.978733437601477 0.90914352051913638 20.723343504825607 24.445095416391268 32.429334694053978 28.03040468855761
leaf_count=57952 247 36819 1987 890 14867 77463 13806 126052 296749 454 27 781 319 379 464
internal_value=-0.000150092 -0.002226 -0.0269991 -0.0380309 0.0187664 0.000472746 -0.0106818 0.0057209 0.119385 0.035001 0.193876 0.0473568 0.0133343 0.0100931 0.0878951
internal_weight=13425.8 12098.1 1188.48 1034.93 1327.65 10909.6 3490.62 7419.01 68.0051 31.8851 36.12 153.548 1259.65 1207.17 52.4755
internal_count=629256 315750 61610 58842 313506 254140 91269 162871 297477 701 296776 2768 16029 15246 783
is_linear=0
shrinkage=0.214006


Tree=47
num_leaves=15
num_cat=0
split_feature=80 36 103 83 63 101 104 91 92 58 42 30 108 83
split_gain=11.0829 14.5447 15.5479 13.7603 14.2659 13.5697 12.4815 11.4251 14.4679 10.3409 10.1847 10.0635 9.13802 6.80544
threshold=1.5000000000000002 1.0000000180025095e-35 5.128172655501424 3.5000000000000004 -2.4049957308493162 -0.030075422721216296 -1.541637328987747 2.5000000000000004 1.0000000180025095e-35 2.5000000000000004 1.0000000180025095e-35 1.0000000180025095e-35 1.7123399446315071 11.500000000000002
decision_type=8 8 10 10 10 8 10 10 10 10 10 10 8 10
left_child=3 10 5 4 6 -3 -1 11 -9 -6 13 -5 -12 -2
right_child=1 2 -4 7 9 -7 -8 8 -10 -11 12 -13 -14 -15
leaf_value=0.085661427741993729 0.0067883046550545291 -0.0038184552020771082 3.8020679240165833 0.0010437027330881291 -0.016826815942185908 0.25163345149549143 0.65526752289171608 -0.017599235956995529 0.12996514081923269 -0.087245427939149856 0.075902516980659321 0.054531195912295022 0.37009854480925652 0.069067773254153877
leaf_weight=9.5268148195464146 1844.6504442472942 16.993384561734274 0.053151189349590733 8707.2734547951259 209.11727551429067 21.665986528329086 2.1616095022764048 2090.0341804374475 30.879149629734457 175.79619233962148 42.351590663776733 164.13762100576423 5.4586047874763599 84.015921048820019
leaf_count=643 36606 308 2 165267 27138 296334 108 57041 1061 40129 823 2921 56 819
internal_value=-0.000164599 0.0144645 0.144374 -0.00275312 -0.0419153 0.139345 0.191002 -0.00134015 -0.0154508 -0.0489881 0.01192 0.00203332 0.109492 0.0095013
internal_weight=13404.1 2015.19 38.7125 11388.9 396.602 38.6594 11.6884 10992.3 2120.91 384.913 1976.48 8871.41 47.8102 1928.67
internal_count=629256 334948 296644 294308 68018 296642 751 226290 58102 67267 38304 168188 879 37425
is_linear=0
shrinkage=0.214006


Tree=48
num_leaves=16
num_cat=0
split_feature=59 76 83 65 65 86 103 58 53 85 104 86 106 39 86
split_gain=9.2294 15.0053 15.6952 32.5517 14.5463 16.1564 14.325 11.7922 10.7973 11.9039 10.3273 10.0338 9.7126 8.47404 5.18457
threshold=-0.16504762711547397 1.0000000180025095e-35 5.5000000000000009 1.0000000180025095e-35 1.0000000180025095e-35 1.1853474711325207 -0.2701417620189932 1.0000000180025095e-35 1.0000000180025095e-35 3.1831477782498454 4.3193625982277704 -1.2429699427257839 -0.28788845787066381 1.0000000180025095e-35 3.4395321038398863
decision_type=8 10 10 8 10 10 10 10 8 10 8 10 10 10 10
left_child=1 2 3 -1 8 13 11 -4 12 -10 -8 -3 -2 -6 -7
right_child=4 6 7 -5 5 14 10 -9 9 -11 -12 -13 -14 -15 -16
leaf_value=-0.057563470326011522 0.022883481518758932 0.18046390574995191 0.064325940764175527 0.10556876504777724 0.0022774082014236753 -0.044114491465401806 -0.012038751958666506 -0.0060114258214507719 0.051277345891809697 0.51322711948382993 0.3919902278859877 0.04295955883057806 -0.00057209157687887458 -0.12262607212819758 -0.14946875737206608
leaf_weight=544.74258157482836 1651.5831549366703 26.026857971213758 111.05587117839605 62.44185546413064 1687.6825921088457 302.71232912316918 326.22590300766751 6403.9629858564585 271.76216338692757 2.5790240298956624 2.9233974288217714 367.23934456799179 1583.9477608357556 25.248929657042027 23.019213795661926
leaf_count=80695 34808 570 893 403 7451 1333 10552 141125 304485 86 60 6819 39758 115 103
internal_value=-0.000173761 -0.00489847 -0.00787938 -0.0407872 0.00650611 -0.00787148 0.02449 -0.00481245 0.0148571 0.05562 -0.0084503 0.0520598 0.0114009 0.000436308 -0.0515598
internal_weight=13393.2 7844.62 7122.2 607.184 5548.54 2038.66 722.416 6515.02 3509.87 274.341 329.149 393.266 3235.53 1712.93 325.732
internal_count=629256 241117 223116 81098 388139 9002 18001 142018 379137 304571 10612 7389 74566 7566 1436
is_linear=0
shrinkage=0.214006


Tree=49
num_leaves=13
num_cat=0
split_feature=29 107 104 25 26 86 64 49 85 109 108 101
split_gain=8.4467 21.9131 7.48683 10.7671 8.42619 8.08818 10.6019 9.76774 7.74853 7.25135 13.2004 4.25557
threshold=1.0000000180025095e-35 -3.9454437253021752 -1.0765298907226708 1.0000000180025095e-35 1.0000000180025095e-35 -0.15523640567334077 1.0000000180025095e-35 1.0000000180025095e-35 -0.5983366323651057 2.5850575626585592 5.411435298693906 0.20315596170767258
decision_type=8 8 10 10 10 10 10 10 10 10 10 8
left_child=2 -2 5 4 -4 7 -7 -1 -5 10 -3 -11
right_child=1 9 3 8 -6 6 -8 -9 -10 11 -12 -13
leaf_value=0.0087294010490103838 1.8310762640161005 0.042518897433213888 -0.0028274411733209466 -0.19079104548442088 0.041611908714635507 0.10464092357153158 0.020163691606405743 -0.086398619364883536 -0.042535042429771491 -0.17269186649208026 0.5542080399222058 0.027586642075680113
leaf_weight=1078.6564122424461 0.31215635314583778 222.74218927302718 11326.120096819592 18.96275438729208 198.84115740435664 90.228957828134298 276.66222423687577 51.808782065869309 108.66706581041217 11.368618726730345 2.3331969191785893 8.4857166362926382
leaf_count=25919 8 301530 286228 533 5063 2347 3536 1418 2420 121 27 106
internal_value=-0.000180933 0.0391705 -0.000914823 -0.0027453 -0.00206073 0.0133302 0.040939 0.00436972 -0.0645624 0.0368867 0.0478232 -0.0870931
internal_weight=13395.2 245.242 13149.9 11652.6 11525 1497.36 366.891 1130.47 127.63 244.93 225.075 19.8543
internal_count=629256 301792 327464 294244 291291 33220 5883 27337 2953 301784 301557 227
is_linear=0
shrinkage=0.214006


Tree=50
num_leaves=15
num_cat=0
split_feature=54 16 92 96 31 55 101 56 75 107 86 107 104 86
split_gain=8.26159 11.6694 24.0675 14.6875 7.58194 7.34817 13.3676 13.2538 7.32335 10.382 7.15802 14.3759 13.5435 3.39975
threshold=1.0000000180025095e-35 1.0000000180025095e-35 1.0000000180025095e-35 -1.2023890723995543 1.0000000180025095e-35 1.0000000180025095e-35 -0.59112405174016569 1.0000000180025095e-35 1.0000000180025095e-35 -0.7949315036189698 -0.097987272144265239 1.2050260096554182 0.0086673931843621512 -0.49077993830209182
decision_type=8 8 10 8 10 10 10 10 10 10 10 10 10 10
left_child=4 10 3 -3 5 7 -7 -1 13 -10 12 -12 -2 -6
right_child=1 2 -4 -5 8 6 -8 -9 9 -11 11 -13 -14 -15
leaf_value=-0.01788003832405238 0.1054906642009872 3.7231025429658158 2.3366967845144595 0.18990785264005142 -0.10318668805330823 -0.021102430381267991 0.052147988967955194 0.0016363517448421609 -0.11716898416102364 0.19681391146179353 -0.027240800950658586 0.20301464087097473 -0.073796716694314909 -0.037702262053837345
leaf_weight=1876.804966902826 91.179432226228528 0.054176557809114456 0.24950422695837993 10.0058594352522 51.066887290100567 179.88140006945468 312.00779222149868 10563.097939244122 7.7431037514470544 12.789097057422621 125.58484672708437 13.781251509673892 24.476850208244286 125.64871116355062
leaf_count=55788 2863 1 12 296223 1896 7029 9144 248290 97 172 3278 236 634 3593
internal_value=-0.000173256 0.0372136 0.26043 0.208935 -0.000928826 -0.000293676 0.0253607 -0.00130808 -0.04257 0.0784047 0.0281898 -0.00447193 0.0675473 -0.0566258
internal_weight=13394.4 265.332 10.3095 10.06 13129 12931.8 491.889 12439.9 197.248 20.5322 255.022 139.366 115.656 176.716
internal_count=629256 303247 296236 296224 326009 320251 16173 304078 5758 269 7011 3514 3497 5489
is_linear=0
shrinkage=0.214006


Tree=51
num_leaves=15
num_cat=0
split_feature=85 102 86 99 71 83 57 64 105 107 99 68 23 84
split_gain=7.11385 9.65259 14.2155 11.9904 7.5551 14.3678 9.83824 5.91597 7.24417 9.79443 6.86368 5.61187 4.76626 2.36331
threshold=2.3347716308335045 4.1741711893788329 0.35682528867006053 0.16765563639299899 1.0000000180025095e-35 6.5000000000000009 1.0000000180025095e-35 2.5000000000000004 0.15667562391083922 0.4849640864398323 0.90816801009114712 1.0000000180025095e-35 1.0000000180025095e-35 1.6226725919245666
decision_type=10 8 8 10 10 10 10 10 10 10 10 10 8 10
left_child=1 4 -3 -4 6 -6 -1 11 9 -9 -10 12 -2 -13
right_child=7 2 3 -5 5 -7 -8 8 10 -11 -12 13 -14 -15
leaf_value=-0.0087535502087776225 -0.023368178142517626 1.3454202806467404 0.13371746777266696 -0.02569956079750509 0.092763382956475529 0.009037254339010873 0.003900632591990211 0.019124439466482564 -0.11838818562603097 0.30385580008449325 0.097117187156000762 -0.084479822656897088 -0.14710780575199406 -0.21344650524264722
leaf_weight=4954.5969714268576 340.09659225947689 0.39912482164800167 50.38546713143478 37.833206093404442 101.20283052581362 1295.3289847807027 6512.4563905941322 14.297519608400764 16.871854856610302 9.0259651406668109 11.302920859307049 21.174925354542214 14.880249063135123 9.3948122428264451
leaf_count=165773 7898 6 296531 471 2231 11834 143261 172 135 92 91 247 397 117
internal_value=-0.000178176 0.000727956 0.0711156 0.0653503 0.000243052 0.0151047 -0.00156689 -0.0270322 0.0410947 0.129313 -0.0319335 -0.036132 -0.0285552 -0.124114
internal_weight=13389.2 12952.2 88.6178 88.2187 12863.6 1396.53 11467.1 437.045 51.4983 23.3235 28.1748 385.547 354.977 30.5697
internal_count=629256 620107 297008 297002 323099 14065 309034 9149 490 264 226 8659 8295 364
is_linear=0
shrinkage=0.214006


Tree=52
num_leaves=15
num_cat=0
split_feature=84 57 69 65 48 84 86 29 102 79 54 58 102 86
split_gain=7.83712 10.5484 15.1218 28.4844 12.1539 12.5768 9.05164 7.42127 6.98821 9.40127 13.6592 8.39889 7.96669 5.37205
threshold=-1.0081834754033792 1.0000000180025095e-35 1.0000000180025095e-35 1.0000000180025095e-35 1.0000000180025095e-35 -0.068592022786256729 0.92136535541511488 1.0000000180025095e-35 3.1038467718902236 1.0000000180025095e-35 1.0000000180025095e-35 1.0000000180025095e-35 2.9254571840334775 -1.3232777550374042
decision_type=10 10 10 10 10 10 10 10 8 8 10 10 10 10
left_child=8 2 3 -2 7 -6 -4 -3 12 11 -11 -10 13 -1
right_child=1 4 6 -5 5 -7 -8 -9 9 10 -12 -13 -14 -15
leaf_value=0.059771355970523091 -0.030605858660523382 0.00026036491884398334 0.026416682120004972 0.01594654455594156 0.2300898018828457 0.039835817008450243 -0.028123968326351213 0.051631452961991238 0.14601909608837985 0.14642609764660197 1.1728963835792239 -0.090351422262737596 -0.17511753431885338 0.0084603929493101675
leaf_weight=98.672021264210343 2259.1986863600323 7268.4732270633103 639.67760714050382 820.62944093719125 18.173960401909426 127.9140369364759 178.17814545263536 131.11652273812797 10.964510445948692 30.310480764483149 0.60558758862316509 18.502934908494353 10.57273708283901 1765.1806739977328
leaf_count=2300 115657 148870 8007 3942 304 2748 2245 2628 120 296351 8 312 131 45633
internal_value=-0.00016249 -0.00229234 -0.0113327 -0.0182018 0.00237744 0.0635042 0.0145344 0.00117063 0.0124344 0.0840925 0.166533 -0.00240057 0.010126 0.0111768
internal_weight=13378.2 11443.4 3897.68 3079.83 7545.68 146.088 817.856 7399.59 1934.81 60.3835 30.9161 29.4674 1874.43 1863.85
internal_count=629256 284401 129851 119599 154550 3052 10252 151498 344855 296791 296359 432 48064 47933
is_linear=0
shrinkage=0.214006


Tree=53
num_leaves=16
num_cat=0
split_feature=89 70 84 19 61 86 90 83 104 42 68 91 58 110 85
split_gain=6.96394 9.0707 17.2722 85.5435 10.7732 9.01331 8.37915 9.26298 15.7335 9.37085 8.255 12.0293 8.06253 7.56328 6.6646
threshold=1.0000000180025095e-35 1.0000000180025095e-35 -2.3236115090673537 1.0000000180025095e-35 1.5000000000000002 -0.81280631440314377 1.0000000180025095e-35 10.500000000000002 -0.51339688087238955 1.0000000180025095e-35 1.0000000180025095e-35 1.0000000180025095e-35 1.5000000000000002 5.9696646260486164 0.91929271670160462
decision_type=10 8 10 10 10 10 10 10 10 10 10 10 10 10 10
left_child=1 4 3 -3 12 -6 7 9 -9 -2 14 -12 -1 -4 -8
right_child=6 2 13 -5 5 -7 10 8 -10 -11 11 -13 -14 -15 -16
leaf_value=0.018997897908064765 -0.025388662333331584 0.2529049609943621 0.01876287825843655 9.8946530103779455 -0.021015765977631683 0.0092127175148288588 0.0072373989024554931 -0.052797973512951998 0.038700654979885181 0.084439964114811181 0.013560906601346649 -0.032611804727922633 -0.057552835795366679 0.23432934702567884 -0.01248999419639521
leaf_weight=86.709257829934359 1613.7676396915922 10.913842002244561 1147.7932946098736 0.042306585470215263 533.82996867294423 2938.3207402112894 4221.6832636758918 120.47891264501959 301.35821251850575 36.381651561823674 396.29130934155546 742.7730384102324 230.56658687745221 7.5029119825921944 963.26502502930816
leaf_count=2146 72607 296199 30979 2 19438 86000 69562 1700 3405 1386 4734 10258 18465 89 12286
internal_value=-0.000166455 0.0061952 0.0226991 0.290136 0.0011159 0.0045652 -0.00392138 -0.0157325 0.0125682 -0.0229672 -5.1592e-05 -0.0165479 -0.0366321 0.0201628 0.00357242
internal_weight=13351.7 4955.68 1166.25 10.9561 3789.43 3472.15 8396 2071.99 421.837 1650.15 6324.01 1139.06 317.276 1155.3 5184.95
internal_count=629256 453318 327269 296201 126049 105438 175938 79098 5105 73993 96840 14992 20611 31068 81848
is_linear=0
shrinkage=0.214006


Tree=54
num_leaves=16
num_cat=0
split_feature=99 103 96 103 107 104 105 22 101 103 106 73 107 11 81
split_gain=5.77194 10.3999 9.31167 10.2304 8.93046 12.2045 11.1471 16.2145 9.25969 8.90228 8.23351 10.327 7.72702 7.09227 6.90973
threshold=-0.40150474053707602 0.38338070740622493 1.651730164600961 0.48018868233347439 -0.82581887834135381 -0.78830106487393736 3.2682053105604405 1.0000000180025095e-35 -0.77036747046044241 4.0042831337637725 0.050558899929534155 1.0000000180025095e-35 2.2243093754941032 1.0000000180025095e-35 1.5000000000000002
decision_type=10 10 10 8 10 10 8 10 10 8 10 10 10 10 10
left_child=4 10 3 -3 6 14 13 -8 -7 -4 11 -2 -12 -1 -6
right_child=1 2 9 -5 5 8 7 -9 -10 -11 12 -13 -14 -15 -16
leaf_value=0.018753905940256502 -0.02092550993876444 0.084388343254732157 -0.061719515815015516 0.0049193621565850896 -0.034930102976599244 0.024549476011510904 0.11391452345060189 1.0002230214320984 -0.00024633373569525168 0.016666408379586443 -0.043119182885389545 0.017794876191309407 0.094584865184488623 -0.073705973208577455 0.12621665715481659
leaf_weight=1257.7085613391828 1020.1715443696594 76.87119341804646 182.9310222849017 2127.5284574951511 518.07230867038015 777.10405734158121 33.840172994512614 0.97250031493604083 6136.0769555493025 104.12559927836992 580.21395807282533 456.67566280206665 19.28276478825137 39.178974735317752 12.479804043541661
leaf_count=26784 41340 2417 4389 49006 16078 22042 296341 10 139034 2076 21198 6805 291 910 535
internal_value=-0.000183304 -0.00635262 0.00296939 0.00769058 0.00302796 0.000140362 0.0191686 0.138674 0.00254094 -0.0332862 -0.0175383 -0.00895226 -0.0386899 0.0159607 -0.0311396
internal_weight=13343.2 4567.8 2491.46 2204.4 8775.43 7443.73 1331.7 34.8127 6913.18 287.057 2076.34 1476.85 599.497 1296.89 530.552
internal_count=629256 127522 57888 51423 501734 177689 324045 296351 161076 6465 69634 48145 21489 27694 16613
is_linear=0
shrinkage=0.214006


Tree=55
num_leaves=16
num_cat=0
split_feature=86 49 100 85 107 102 103 102 104 78 100 104 101 64 85
split_gain=5.56394 17.9898 10.5384 14.9026 23.5931 9.97421 9.1617 8.98019 8.83866 8.54858 7.58944 6.37107 5.6648 3.37303 2.75646
threshold=-0.15523640567334077 1.0000000180025095e-35 -0.89349615337546651 -0.47700301716084698 -1.1713713830480292 2.30415800766009 3.1619837404570919 1.2559561277065372 0.38456114725816398 1.0000000180025095e-35 -0.88178230860490869 1.5590789261127622 -0.16454678350922267 1.5000000000000002 0.54258301416031818
decision_type=8 10 10 10 10 10 10 10 10 10 10 10 8 10 8
left_child=1 6 3 4 -2 8 9 -5 -3 -1 13 -12 -7 -4 -8
right_child=2 5 10 7 -6 12 14 -9 -10 -11 11 -13 -14 -15 -16
leaf_value=0.00066626179826392406 0.12600993677910044 -0.077491051681705253 -0.057023377085633299 0.045623205443610988 2.9738698899429759 0.19945000348094058 -0.21789268609285165 -0.014598141877721564 0.021229323464286944 -0.031158978499640964 0.0048617167073695981 -0.012987856774552017 -0.011995881549797114 -0.28212924597703526 -0.043031142359762069
leaf_weight=5417.9147934989305 61.20719962541898 270.87845489801839 6.2370863787364197 266.18904202664271 0.13352005649357934 10.456915744114665 11.458729054313151 197.58420862164348 49.05861975485459 416.24493769777473 5505.6974173702774 1098.5492398521164 13.037849424639719 5.9634044971317053 6.4542695744894472
leaf_count=156285 297121 9278 193 5325 3 137 216 2073 1119 4407 132918 19861 145 62 113
internal_value=-0.000174207 -0.00486715 0.00389705 0.0330782 0.132209 -0.0524702 -0.00207354 0.0199667 -0.0623534 -0.00160435 0.00158109 0.00189262 0.0821132 -0.167052 -0.154888
internal_weight=13337.1 6195.5 7141.56 525.114 61.3407 343.432 5852.07 463.773 319.937 5834.16 6616.45 6604.25 23.4948 12.2005 17.913
internal_count=629256 171700 457556 304522 297124 10679 161021 7398 10397 160692 153034 152779 282 255 329
is_linear=0
shrinkage=0.214006


Tree=56
num_leaves=16
num_cat=0
split_feature=87 74 13 58 107 105 105 15 104 39 86 101 101 97 85
split_gain=4.96048 8.61573 12.6013 11.7135 17.8624 9.72877 9.26026 7.32798 6.45833 11.2672 7.12772 5.5109 5.50939 9.63947 6.81651
threshold=1.0000000180025095e-35 1.0000000180025095e-35 1.0000000180025095e-35 3.5000000000000004 -1.8644068533815281 3.3481753438523625 3.3481753438523625 1.0000000180025095e-35 1.5590789261127622 1.0000000180025095e-35 3.181115876104474 0.08845566798691902 1.3948503084898509 0.2199849553916208 1.8127493377511488
decision_type=10 10 10 10 10 10 10 10 10 8 8 10 10 10 8
left_child=7 3 6 5 -5 -2 -3 8 10 -10 -1 -4 13 -9 -14
right_child=1 2 11 4 -6 -7 -8 12 9 -11 -12 -13 14 -15 -16
leaf_value=0.0058121241169170204 -0.0045497125557018266 0.0071794231734368334 0.34363431379063158 0.2485668336647209 -0.054081257163465735 -0.090678556133286556 0.15177005585131118 -0.011971028647242038 -0.017918457720067154 0.27493358390427713 0.096656213014282469 0.081039129100411458 0.20283054089984059 -0.11292918345590609 -0.045652929956352804
leaf_weight=6901.8613765905611 4134.984177211416 906.65404486423358 7.2192931887693685 9.1679065928328765 346.10219108138699 60.949146784609184 20.750202585477382 123.2591751778964 685.8220766291488 6.0701391957700244 39.783753099894966 7.4242625853512436 9.44236075831577 66.780002592597157 10.884533279575409
leaf_count=139715 132815 13192 103 504 30996 740 193 2267 10320 125 296773 104 123 1078 208
internal_value=-0.000172183 -0.00510401 0.0135248 -0.00895995 -0.0462713 -0.0058008 0.0104146 0.00328168 0.00436755 -0.0153492 0.00633277 0.210499 -0.0361211 -0.0474478 0.069774
internal_weight=13337.2 5493.25 942.048 4551.2 355.27 4195.93 927.404 7843.9 7633.54 691.892 6941.65 14.6436 210.366 190.039 20.3269
internal_count=629256 178647 13592 165055 31500 133555 13385 450609 446933 10445 436488 207 3676 3345 331
is_linear=0
shrinkage=0.214006


Tree=57
num_leaves=12
num_cat=0
split_feature=31 84 102 109 30 65 76 102 104 105 102
split_gain=4.80085 5.26293 4.69779 9.52077 9.28404 9.09738 11.1361 7.44151 5.07511 4.11247 5.79044
threshold=1.0000000180025095e-35 -1.7598566374970788 -0.0090990586980444991 0.065652769197010671 1.0000000180025095e-35 1.0000000180025095e-35 1.0000000180025095e-35 -0.00019760507653199995 0.5549510062298858 3.167373529453235 0.54688783204592439
decision_type=10 10 8 10 10 10 10 10 10 10 10
left_child=2 -2 3 4 -1 7 -7 -4 -5 10 -3
right_child=1 9 5 8 -6 6 -8 -9 -10 -11 -12
leaf_value=-0.0029393713001778735 0.20447174990792011 -0.025318936552259079 0.15235664165925891 -0.044422640080663503 0.050505410168786465 0.0028948597759251961 -0.037014581822722964 0.011974471383765875 -0.16535847630676412 0.10467594417549654 -0.11755675635530972
leaf_weight=8077.0811831689207 4.1554792718961826 139.09121545706876 17.39355053897998 79.422799069667235 151.65512740402482 1360.8699936121702 418.73899468779564 3014.386091265711 19.8678237083368 8.6997643085196597 40.173598680528812
leaf_count=248422 103 5006 296569 2447 3829 5979 1871 64037 281 89 623
internal_value=-0.000164559 -0.0337497 0.000326511 -0.00274922 -0.00195439 0.0056503 -0.00649576 0.0127799 -0.0686216 -0.0390162 -0.0459896
internal_weight=13331.5 192.12 13139.4 8328.03 8228.74 4811.39 1779.61 3031.78 99.2906 187.965 179.265
internal_count=629256 5821 623435 254979 252251 368456 7850 360606 2728 5718 5629
is_linear=0
shrinkage=0.214006


Tree=58
num_leaves=13
num_cat=0
split_feature=11 55 42 57 83 105 2 104 99 105 83 109
split_gain=4.41681 6.68556 10.34 9.76741 7.11162 6.13734 5.43237 12.0358 5.16971 5.11142 5.11112 3.96329
threshold=1.0000000180025095e-35 1.0000000180025095e-35 1.0000000180025095e-35 1.0000000180025095e-35 8.5000000000000018 3.2682053105604405 1.0000000180025095e-35 -1.6384879822537612 2.512532028056996 2.7331014790984072 10.500000000000002 2.1188040781543118
decision_type=10 8 8 10 8 8 10 10 10 10 10 10
left_child=1 6 3 -3 -4 8 10 -8 11 -10 -1 -2
right_child=5 2 4 -5 -6 -7 7 -9 9 -11 -12 -13
leaf_value=-0.0043698282314673575 -0.034425978401971723 -0.027492746703040201 0.039483685912207779 0.043156908853954373 0.20300549219275024 0.25365366408273216 0.28550576267876604 0.020147816842602632 0.23813333042841311 -0.048901230222978716 0.0048100160114962912 -0.14213075989631288
leaf_weight=8177.4085911768489 177.1934568232391 149.91112336004153 24.874683012254536 222.84414423233829 23.868553554086247 3.4124849620275191 8.0241821345407498 320.5552720829146 6.0912001142278296 5.3255648193880916 4206.7730675954372 17.162812231108546
leaf_count=257320 5457 6313 639 7061 296271 34 133 7030 143 52 48560 243
internal_value=-0.000143152 0.000348219 0.0268646 0.0147437 0.119557 -0.0309952 -0.000530946 0.0266281 -0.0357157 0.104241 -0.00125153 -0.0439369
internal_weight=13343.4 13134.3 421.499 372.755 48.7432 209.186 12712.8 328.579 205.773 11.4168 12384.2 194.356
internal_count=629256 623327 310284 13374 296910 5929 313043 7163 5895 195 305880 5700
is_linear=0
shrinkage=0.214006


Tree=59
num_leaves=15
num_cat=0
split_feature=80 64 47 99 64 65 111 83 53 71 83 100 96 21
split_gain=4.53993 7.34891 11.1709 10.3822 7.12498 12.4989 9.20743 8.51317 8.49891 15.6508 11.9739 5.61527 7.89335 7.05995
threshold=1.5000000000000002 1.0000000180025095e-35 1.0000000180025095e-35 2.3357768614395247 2.5000000000000004 1.0000000180025095e-35 2.3849337059385451 9.5000000000000018 1.0000000180025095e-35 1.0000000180025095e-35 2.5000000000000004 -0.10061009316124679 1.4438223286607219 1.0000000180025095e-35
decision_type=8 10 10 10 10 10 10 10 10 10 10 10 10 10
left_child=4 2 3 -2 8 6 -6 -7 10 -10 -1 12 -3 -13
right_child=1 11 -4 -5 5 7 -8 -9 9 -11 -12 13 -14 -15
leaf_value=-0.059609122608211551 0.049048995908522755 -0.0046389750886206308 1.4563796538137244 -0.061056360945529145 0.023513887759780642 -0.059772892648689513 0.13991614386956708 0.0036659573461994312 0.0084126065353394616 0.1158529585558071 -0.0043487399353512235 0.014275376670646869 -0.14449247820495803 0.14726170083133208
leaf_weight=183.18618398695253 321.86326263124283 951.10195762640797 0.25363447866402467 44.664347128709778 846.32475112960674 140.24686156958342 32.310151080135256 313.3035696297884 599.85532037471421 69.264571266947314 9125.8392689717002 671.43710326927248 18.849049027077854 18.794429952977225
leaf_count=40744 308210 14588 8 1312 10696 612 411 1375 26864 893 212713 10308 236 286
internal_value=-0.000127573 0.0091992 0.0366142 0.0356318 -0.00179906 0.0129011 0.0277944 -0.0159506 -0.00376168 0.0195344 -0.00543617 0.00314245 -0.00735675 0.0178965
internal_weight=13337.3 2026.96 366.781 366.528 11310.3 1332.19 878.635 453.55 9978.15 669.12 9309.03 1660.18 969.951 690.232
internal_count=629256 334948 309530 309522 294308 13094 11107 1987 281214 27757 253457 25418 14824 10594
is_linear=0
shrinkage=0.214006


Tree=60
num_leaves=15
num_cat=0
split_feature=105 104 58 99 58 8 58 104 64 107 104 99 56 40
split_gain=4.47351 8.80353 9.60829 8.61937 12.5215 14.316 12.3615 8.52029 10.3611 6.90081 6.53632 6.49946 9.8598 8.23184
threshold=3.1280839044011164 0.51265394673902132 1.5000000000000002 2.8818148497493774 1.5000000000000002 1.0000000180025095e-35 1.0000000180025095e-35 0.46541688976974144 2.5000000000000004 2.3497893353037891 1.0746387409591842 -0.40150474053707602 1.0000000180025095e-35 1.0000000180025095e-35
decision_type=10 10 10 8 8 10 10 10 10 8 10 10 10 10
left_child=3 7 10 11 6 -6 -5 8 -2 -4 -3 12 -1 -13
right_child=1 2 9 4 5 -7 -8 -9 -10 -11 -12 13 -14 -15
leaf_value=-0.012192067206344935 -0.045975703527779417 0.03730950551113435 0.061908265021871897 0.055874421323435078 0.065532056892649515 0.40418788599446531 -0.026780465481114582 -0.18693632292350562 0.036509975405017256 0.2966743382643468 -0.029421666346964102 -0.0089128243386449348 0.0065727818442920007 0.083437075697368815
leaf_weight=1582.1820072320988 351.73498926870525 102.49838297767565 55.756952297408134 136.18354001059242 151.59468197857814 5.9408815287752068 211.66723139630631 16.355200090212747 86.99192554410547 6.3916644130367777 195.3406526602339 3625.9277991851559 6768.7740059961798 44.751058240770362
leaf_count=48140 3956 842 872 1432 301018 161 3408 159 610 74 1594 112022 153520 1448
internal_value=-0.000130053 -0.0154927 0.00951415 0.000869514 0.028248 0.0783032 0.00557891 -0.035274 -0.0296202 0.0860527 -0.00645679 -0.000281472 0.00301757 -0.00778694
internal_weight=13342.1 815.07 359.988 12527 505.386 157.536 347.851 455.082 438.727 62.1486 297.839 12021.6 8350.96 3670.68
internal_count=629256 8107 3382 621149 306019 301179 4840 4725 4566 946 2436 315130 201660 113470
is_linear=0
shrinkage=0.214006


Tree=61
num_leaves=13
num_cat=0
split_feature=54 103 106 85 104 104 109 102 30 86 65 76
split_gain=4.81199 5.41994 11.0137 9.87421 8.49307 6.95957 4.32763 11.1019 8.27292 7.77167 7.58645 7.3478
threshold=1.0000000180025095e-35 -0.40899778391194958 -0.39735446437019767 -0.32461662889541876 2.1404498725995711 0.67014640688871829 -0.18792368728775541 -0.30935597036271451 1.0000000180025095e-35 -1.5149033269888945 1.0000000180025095e-35 1.0000000180025095e-35
decision_type=8 10 10 10 8 10 10 10 10 10 10 10
left_child=6 2 3 -2 5 -3 8 -8 11 -10 -9 -1
right_child=1 4 -4 -5 -6 -7 7 10 9 -11 -12 -13
leaf_value=-0.0071418739753232787 0.13478462696355983 0.0059672061297205781 2.6622749166291273 0.015164606526269797 0.24061793527243203 -0.13463579421205427 0.281189175753017 0.0096517215325796681 0.35758015770613116 0.038724605609924724 -0.0069740825607755063 0.015626468763021571
leaf_weight=6787.0185558521189 47.822614971682924 98.377566180075519 0.074282231740652516 93.191356119816191 6.1643215913791201 19.283294839435257 6.6054576844908288 3440.6653637661948 3.5896205315366378 141.63385656359605 1980.5071160569787 717.80842720181681
leaf_count=215744 297276 3078 9 2217 127 540 162 80306 79 3522 8768 17428
internal_value=-0.000127607 0.0284274 0.0571041 0.0557318 -0.00424741 -0.017076 -0.000706036 0.00391569 -0.00398519 0.046606 0.00357785 -0.00496417
internal_weight=13342.7 264.913 141.088 141.014 123.825 117.661 13077.8 5427.78 7650.05 145.223 5421.17 7504.83
internal_count=629256 303247 299502 299493 3745 3618 326009 89236 236773 3601 89074 233172
is_linear=0
shrinkage=0.214006


Tree=62
num_leaves=16
num_cat=0
split_feature=68 91 80 46 86 41 107 90 66 82 77 77 88 26 86
split_gain=4.2841 9.26165 9.13773 13.868 7.30533 7.42387 6.35604 5.39764 14.0731 16.607 14.6802 6.02639 11.9166 9.8567 3.22167
threshold=1.0000000180025095e-35 1.0000000180025095e-35 1.0000000180025095e-35 1.0000000180025095e-35 -1.5149033269888945 1.0000000180025095e-35 0.94634424635544934 1.0000000180025095e-35 1.0000000180025095e-35 1.0000000180025095e-35 1.0000000180025095e-35 1.0000000180025095e-35 1.0000000180025095e-35 1.0000000180025095e-35 -1.7399242268323458
decision_type=10 10 10 8 10 10 10 8 10 10 10 10 10 8 10
left_child=7 2 6 -4 14 -6 -2 8 10 -10 -1 13 -13 -9 -3
right_child=1 4 3 -5 5 -7 -8 11 9 -11 -12 12 -14 -15 -16
leaf_value=-0.016251775558831848 -0.030350767367408195 -0.045989242622702639 0.027002478280329374 0.29090426070832698 -0.016502599385434722 -0.12408057593880284 0.053072142114509502 0.0089599152089171637 0.093327340947064449 0.0075434263082548338 0.012363038135261158 -0.011323284586957137 0.020518773342629845 0.086592834862825402 -0.22185280801470308
leaf_weight=3052.5766589686973 254.95251915615518 8.0169087881222385 336.17722256924026 9.374002125579862 1063.2405623310478 30.21378855034709 50.037312941043638 4029.7988092869637 132.60888710804284 468.51844053715467 1123.2570416700328 1965.707420549239 741.25361995678395 76.32029511894325 11.781802636687642
leaf_count=171565 4132 104 3834 89 17239 471 619 84061 1674 3220 17867 19019 7547 297597 218
internal_value=-0.00012741 -0.00995329 0.0103331 0.0341615 -0.0218079 -0.0194751 -0.0166642 0.00136791 -0.00414754 0.0264674 -0.00855468 0.00523505 -0.0026039 0.0104029 -0.150642
internal_weight=13353.8 1763.79 650.541 345.551 1113.25 1093.45 304.99 11590 4776.96 601.127 4175.83 6813.08 2706.96 4106.12 19.7987
internal_count=629256 26706 8674 3923 18032 17710 4751 602550 194326 4894 189432 408224 26566 381658 322
is_linear=0
shrinkage=0.214006


Tree=63
num_leaves=16
num_cat=0
split_feature=89 52 58 107 102 107 58 101 44 85 97 81 61 58 84
split_gain=4.45234 7.79865 12.7364 9.82723 9.03796 7.21221 7.62059 6.47696 11.4101 11.3176 12.3333 10.432 8.55489 6.15851 5.6378
threshold=1.0000000180025095e-35 1.0000000180025095e-35 1.5000000000000002 0.89615226243157475 -0.2520143530718521 0.94634424635544934 3.5000000000000004 0.28598182499274749 1.0000000180025095e-35 0.34883289343889273 0.16714920995619534 1.0000000180025095e-35 1.5000000000000002 3.5000000000000004 1.2468360108777179
decision_type=10 10 10 10 10 10 10 8 10 10 8 10 10 10 10
left_child=7 5 4 -4 -3 6 -2 8 12 10 -9 -10 -1 -11 -7
right_child=1 2 3 -5 -6 14 -8 9 11 13 -12 -13 -14 -15 -16
leaf_value=-0.042827191202117205 -0.0049804846682611524 0.35008267511544888 0.044117254273514137 -0.20876435901053347 0.09258249119667894 0.017433522839565816 -0.037405155937200084 0.042357842165622085 0.023517769564536654 0.0061130185656856802 0.20142465111146637 0.1731967905698272 -0.00031185682169619292 0.063863444649939163 -0.014523680604147512
leaf_weight=236.02713031461462 6528.7042787361424 9.4900702261365968 38.524139556684531 8.6111751025309768 18.242993495194241 1099.4821057125228 349.74619736697059 175.09893826791085 68.959301703842357 1682.7271095702308 25.586014954807979 30.872559750801884 2655.069589724415 89.045395129476674 328.3263589036651
leaf_count=15102 131209 97 1048 164 163 15578 22302 5810 2450 42536 296688 1172 83340 6220 5377
internal_value=-0.000128124 -0.00313632 0.065624 -0.00208182 0.180697 -0.00375609 -0.00662917 0.00495149 -0.00132654 0.0144712 0.0626378 0.0698053 -0.00378278 0.00901543 0.0100849
internal_weight=13344.5 8381.13 74.8684 47.1353 27.7331 8306.26 6878.45 4963.39 2990.93 1972.46 200.685 99.8319 2891.1 1771.77 1427.81
internal_count=629256 175938 1472 1212 260 174466 153511 453318 102064 351254 302498 3622 98442 48756 20955
is_linear=0
shrinkage=0.214006


Tree=64
num_leaves=14
num_cat=0
split_feature=25 100 99 108 106 110 34 85 101 107 106 21 99
split_gain=4.14348 7.14574 8.3736 13.6439 5.91661 6.27919 3.9144 6.7569 7.47056 6.47082 4.1275 12.101 4.04706
threshold=1.0000000180025095e-35 -0.44903466740039583 1.2500972844209455 -0.25444490776496248 1.8630288436103408 0.4092426005976188 1.0000000180025095e-35 -1.4503096260819681 -1.5998077239449386 -0.13471386892800394 3.485996979318184 1.0000000180025095e-35 -0.40150474053707602
decision_type=10 10 10 8 10 10 10 10 10 10 8 10 10
left_child=6 2 3 -2 5 -3 10 8 -8 -9 12 -12 -1
right_child=1 4 -4 -5 -6 -7 7 9 -10 -11 11 -13 -14
leaf_value=0.0034523583491871787 0.013184849058769203 -0.064441520861716173 -0.18040518312469048 0.35373380393608955 0.10803265697699219 -0.25286338667610236 -0.026400969248082065 0.0029092560994936458 0.2477790287851061 -0.047579999600340053 0.045626290815425512 0.78439843743202553 -0.004636352784598086
leaf_weight=8385.1501088667428 25.169188875006512 82.05940219736658 6.4952438350301227 6.855643175658769 8.0807954177726042 8.9873024699045327 9.1977372054243478 221.24028770264704 9.0093321037711558 244.9915332866367 53.765267255566869 1.0349805036094029 4278.3426602141699
leaf_count=195695 711 1880 133 141 172 212 252 5940 300 6414 297079 21 120306
internal_value=-0.000131063 -0.037069 0.0411512 0.0860871 -0.0674647 -0.0830408 0.00025404 -0.0186268 0.10927 -0.0236214 0.000973211 0.0595791 0.000719599
internal_weight=13340.4 137.648 38.5201 32.0248 99.1275 91.0467 13202.7 484.439 18.2071 466.232 12718.3 54.8002 12663.5
internal_count=629256 3249 985 852 2264 2092 626007 12906 552 12354 613101 297100 316001
is_linear=0
shrinkage=0.214006


Tree=65
num_leaves=14
num_cat=0
split_feature=105 108 85 101 106 56 84 21 104 104 72 87 101
split_gain=3.84324 5.90163 9.93355 13.1301 5.91662 8.68224 7.55055 5.73315 6.98428 6.30753 5.48237 5.45705 3.33447
threshold=3.1280839044011164 1.4918640626012978 -0.86306452008348911 -0.89089888482674173 -0.29075969738540575 1.0000000180025095e-35 0.58912199404573051 1.0000000180025095e-35 0.51265394673902132 0.46541688976974144 1.0000000180025095e-35 1.0000000180025095e-35 0.72682163307591419
decision_type=10 8 8 10 10 10 10 10 10 10 10 10 8
left_child=1 4 11 -4 5 -1 -6 8 9 -2 -10 -3 -9
right_child=7 2 3 -5 6 -7 -8 12 10 -11 -12 -13 -14
leaf_value=-0.011734903268537643 -0.024671028578405186 -0.050345929533747516 0.19509616642353192 0.023467305177539165 -0.015598874337997445 0.0055476011935690255 0.0088240683904654508 -0.040235831161343973 -0.027532656790813577 -0.16575385078838417 0.029260692015888604 0.030838880392808077 -0.21260455820897348
leaf_weight=1641.0548961025197 425.09382636367809 132.1946532697184 21.010735371825376 719.47508399281605 2104.4650152717368 7052.6709681855282 800.17630570987239 10.339043871033935 115.18616621941328 15.02620337391272 240.11933150701225 53.171165883773938 10.221596214454623
leaf_count=50665 4461 1575 296294 9950 72920 161778 26948 104 1310 155 1992 1019 85
internal_value=-0.000123221 0.00080395 0.0172463 0.0283371 -0.000508579 0.0022853 -0.00887079 -0.014354 -0.0114699 -0.0294878 0.0108489 -0.0270585 -0.125928
internal_weight=13340.2 12524.2 925.852 740.486 11598.4 8693.73 2904.64 815.986 795.426 440.12 355.305 185.366 20.5606
internal_count=629256 621149 308838 306244 312311 212443 99868 8107 7918 4616 3302 2594 189
is_linear=0
shrinkage=0.214006


Tree=66
num_leaves=15
num_cat=0
split_feature=55 42 84 107 109 61 101 100 58 49 96 83 19 83
split_gain=3.95786 6.58066 6.31706 5.96962 9.93485 5.63174 4.2339 10.7241 12.1012 7.3841 5.51175 6.21299 4.46188 3.46452
threshold=1.0000000180025095e-35 1.0000000180025095e-35 2.2334070361256972 -0.42621346787050635 2.9449725331530661 1.5000000000000002 -1.1569138266318555 0.21873756143467263 2.5000000000000004 1.0000000180025095e-35 -1.1093505497972944 5.5000000000000009 1.0000000180025095e-35 7.5000000000000009
decision_type=8 8 8 10 10 10 10 10 10 10 10 10 10 10
left_child=6 2 5 4 -3 -2 7 9 -9 -1 11 -8 -12 -5
right_child=1 3 -4 13 -6 -7 10 8 -10 -11 12 -13 -14 -15
leaf_value=0.0098620917327895009 -0.088794050783533751 0.17720688015298175 0.3286729574716894 -0.074015493650491537 2.6635401030841961 0.014304372302247093 0.12502067760339655 0.047469351793167955 0.25776238257487705 -0.084557557236120462 -0.0022760920882038981 -0.10573816458690967 0.027360088202982916 0.081786289507960394
